{"learner":{"attributes":{},"feature_names":["direction","entry_price","risk_points","target_points","risk_reward","momentum_score","hour","day_of_week","gex_flip_dist","total_gex","gex_regime","nearest_cluster_dist"],"feature_types":["int","float","float","float","float","float","int","int","float","float","int","float"],"gradient_booster":{"model":{"cats":{"enc":[],"feature_segments":[],"sorted_idx":[]},"gbtree_model_param":{"num_parallel_tree":"1","num_trees":"200"},"iteration_indptr":[0,1,2,3,4,5,6,7,8,9,10,11,12,13,14,15,16,17,18,19,20,21,22,23,24,25,26,27,28,29,30,31,32,33,34,35,36,37,38,39,40,41,42,43,44,45,46,47,48,49,50,51,52,53,54,55,56,57,58,59,60,61,62,63,64,65,66,67,68,69,70,71,72,73,74,75,76,77,78,79,80,81,82,83,84,85,86,87,88,89,90,91,92,93,94,95,96,97,98,99,100,101,102,103,104,105,106,107,108,109,110,111,112,113,114,115,116,117,118,119,120,121,122,123,124,125,126,127,128,129,130,131,132,133,134,135,136,137,138,139,140,141,142,143,144,145,146,147,148,149,150,151,152,153,154,155,156,157,158,159,160,161,162,163,164,165,166,167,168,169,170,171,172,173,174,175,176,177,178,179,180,181,182,183,184,185,186,187,188,189,190,191,192,193,194,195,196,197,198,199,200],"tree_info":[0,0,0,0,0,0,0,0,0,0,0,0,0,0,0,0,0,0,0,0,0,0,0,0,0,0,0,0,0,0,0,0,0,0,0,0,0,0,0,0,0,0,0,0,0,0,0,0,0,0,0,0,0,0,0,0,0,0,0,0,0,0,0,0,0,0,0,0,0,0,0,0,0,0,0,0,0,0,0,0,0,0,0,0,0,0,0,0,0,0,0,0,0,0,0,0,0,0,0,0,0,0,0,0,0,0,0,0,0,0,0,0,0,0,0,0,0,0,0,0,0,0,0,0,0,0,0,0,0,0,0,0,0,0,0,0,0,0,0,0,0,0,0,0,0,0,0,0,0,0,0,0,0,0,0,0,0,0,0,0,0,0,0,0,0,0,0,0,0,0,0,0,0,0,0,0,0,0,0,0,0,0,0,0,0,0,0,0,0,0,0,0,0,0,0,0,0,0,0,0],"trees":[{"base_weights":[-0E0,1.5783192E0,-6.905156E-1,9.964361E-3,-1.135537E-3,1.0743929E-3,-9.4953775E-1,-6.131885E-4,-3.7472898E-3],"categories":[],"categories_nodes":[],"categories_segments":[],"categories_sizes":[],"default_left":[0,0,0,0,0,0,0,0,0],"id":0,"left_children":[1,3,5,-1,-1,-1,7,-1,-1],"loss_changes":[1.0555013E1,8.170604E0,1.7733049E0,0E0,0E0,0E0,7.636771E-1,0E0,0E0],"parents":[2147483647,0,0,1,1,2,2,6,6],"right_children":[2,4,6,-1,-1,-1,8,-1,-1],"split_conditions":[3.1015131E0,2.2734447E4,1.5690496E4,9.964361E-3,-1.135537E-3,1.0743929E-3,3.4652966E1,-6.131885E-4,-3.7472898E-3],"split_indices":[4,1,8,0,0,0,3,0,0],"split_type":[0,0,0,0,0,0,0,0,0],"sum_hessian":[9.684782E0,2.9475424E0,6.73724E0,1.68431E0,1.2632325E0,1.3685019E0,5.368738E0,1.0526937E0,4.3160443E0],"tree_param":{"num_deleted":"0","num_feature":"12","num_nodes":"9","size_leaf_vector":"1"}},{"base_weights":[-9.124815E-6,1.5668657E0,-6.894348E-1,9.856454E-3,-1.1327706E-3,1.0699715E-3,-9.486686E-1,-6.0523144E-4,-3.7458534E-3],"categories":[],"categories_nodes":[],"categories_segments":[],"categories_sizes":[],"default_left":[0,0,0,0,0,0,0,0,0],"id":1,"left_children":[1,3,5,-1,-1,-1,7,-1,-1],"loss_changes":[1.0461986E1,8.030474E0,1.7674596E0,0E0,0E0,0E0,7.651758E-1,0E0,0E0],"parents":[2147483647,0,0,1,1,2,2,6,6],"right_children":[2,4,6,-1,-1,-1,8,-1,-1],"split_conditions":[3.1015131E0,2.2734447E4,1.5690496E4,9.856454E-3,-1.1327706E-3,1.0699715E-3,6.4000005E-1,-6.0523144E-4,-3.7458534E-3],"split_indices":[4,1,8,0,0,0,5,0,0],"split_type":[0,0,0,0,0,0,0,0,0],"sum_hessian":[9.684826E0,2.9592519E0,6.7255735E0,1.6971104E0,1.2621415E0,1.369621E0,5.3559527E0,1.0504473E0,4.3055053E0],"tree_param":{"num_deleted":"0","num_feature":"12","num_nodes":"9","size_leaf_vector":"1"}},{"base_weights":[-1.8031827E-5,1.5555592E0,-6.88355E-1,9.750718E-3,-1.1300091E-3,1.0655725E-3,-9.4780016E-1,-3.7444576E-3,-5.96375E-4],"categories":[],"categories_nodes":[],"categories_segments":[],"categories_sizes":[],"default_left":[0,0,0,0,0,0,0,0,0],"id":2,"left_children":[1,3,5,-1,-1,-1,7,-1,-1],"loss_changes":[1.0370145E1,7.8938336E0,1.7616355E0,0E0,0E0,0E0,7.669902E-1,0E0,0E0],"parents":[2147483647,0,0,1,1,2,2,6,6],"right_children":[2,4,6,-1,-1,-1,8,-1,-1],"split_conditions":[3.1015131E0,2.2734447E4,1.5690496E4,9.750718E-3,-1.1300091E-3,1.0655725E-3,1.6825523E4,-3.7444576E-3,-5.96375E-4],"split_indices":[4,1,8,0,0,0,8,0,0],"split_type":[0,0,0,0,0,0,0,0,0],"sum_hessian":[9.68482E0,2.9708862E0,6.7139335E0,1.7098327E0,1.2610536E0,1.370736E0,5.343198E0,4.295242E0,1.0479559E0],"tree_param":{"num_deleted":"0","num_feature":"12","num_nodes":"9","size_leaf_vector":"1"}},{"base_weights":[-2.690821E-5,1.5443968E0,-6.872763E-1,9.647088E-3,-1.1272521E-3,1.0611952E-3,-9.469324E-1,-5.946609E-4,-3.742794E-3],"categories":[],"categories_nodes":[],"categories_segments":[],"categories_sizes":[],"default_left":[0,0,0,0,0,0,0,0,0],"id":3,"left_children":[1,3,5,-1,-1,-1,7,-1,-1],"loss_changes":[1.0279466E1,7.7605586E0,1.7558322E0,0E0,0E0,0E0,7.663021E-1,0E0,0E0],"parents":[2147483647,0,0,1,1,2,2,6,6],"right_children":[2,4,6,-1,-1,-1,8,-1,-1],"split_conditions":[3.1015131E0,2.2734447E4,1.5690496E4,9.647088E-3,-1.1272521E-3,1.0611952E-3,6.4000005E-1,-5.946609E-4,-3.742794E-3],"split_indices":[4,1,8,0,0,0,5,0,0],"split_type":[0,0,0,0,0,0,0,0,0],"sum_hessian":[9.684768E0,2.982446E0,6.7023215E0,1.7224771E0,1.259969E0,1.371847E0,5.3304744E0,1.047475E0,4.2829995E0],"tree_param":{"num_deleted":"0","num_feature":"12","num_nodes":"9","size_leaf_vector":"1"}},{"base_weights":[-3.5661007E-5,1.5333756E0,-6.861987E-1,9.5455E-3,-1.1244998E-3,1.0568396E-3,-9.460656E-1,-3.7414108E-3,-5.8581494E-4],"categories":[],"categories_nodes":[],"categories_segments":[],"categories_sizes":[],"default_left":[0,0,0,0,0,0,0,0,0],"id":4,"left_children":[1,3,5,-1,-1,-1,7,-1,-1],"loss_changes":[1.0189929E1,7.6305428E0,1.7500508E0,0E0,0E0,0E0,7.681155E-1,0E0,0E0],"parents":[2147483647,0,0,1,1,2,2,6,6],"right_children":[2,4,6,-1,-1,-1,8,-1,-1],"split_conditions":[3.1015131E0,2.2734447E4,1.5690496E4,9.5455E-3,-1.1244998E-3,1.0568396E-3,1.6825523E4,-3.7414108E-3,-5.8581494E-4],"split_indices":[4,1,8,0,0,0,8,0,0],"split_type":[0,0,0,0,0,0,0,0,0],"sum_hessian":[9.684666E0,2.9939318E0,6.690734E0,1.7350441E0,1.2588876E0,1.372954E0,5.31778E0,4.272783E0,1.0449972E0],"tree_param":{"num_deleted":"0","num_feature":"12","num_nodes":"9","size_leaf_vector":"1"}},{"base_weights":[-4.4172637E-5,1.5224931E0,-6.851221E-1,9.445896E-3,-1.1217524E-3,1.0525064E-3,-9.451995E-1,-5.79613E-4,-3.7399319E-3],"categories":[],"categories_nodes":[],"categories_segments":[],"categories_sizes":[],"default_left":[0,0,0,0,0,0,0,0,0],"id":5,"left_children":[1,3,5,-1,-1,-1,7,-1,-1],"loss_changes":[1.0101513E1,7.5036774E0,1.7442904E0,0E0,0E0,0E0,7.690034E-1,0E0,0E0],"parents":[2147483647,0,0,1,1,2,2,6,6],"right_children":[2,4,6,-1,-1,-1,8,-1,-1],"split_conditions":[3.1015131E0,2.2734447E4,1.5690496E4,9.445896E-3,-1.1217524E-3,1.0525064E-3,3.4652966E1,-5.79613E-4,-3.7399319E-3],"split_indices":[4,1,8,0,0,0,3,0,0],"split_type":[0,0,0,0,0,0,0,0,0],"sum_hessian":[9.684517E0,3.005344E0,6.679173E0,1.7475343E0,1.2578096E0,1.3740569E0,5.305116E0,1.043265E0,4.2618513E0],"tree_param":{"num_deleted":"0","num_feature":"12","num_nodes":"9","size_leaf_vector":"1"}},{"base_weights":[-5.257861E-5,1.5117469E0,-6.840465E-1,9.3482165E-3,-1.1190092E-3,1.048194E-3,-9.443341E-1,-5.761437E-4,-3.7383558E-3],"categories":[],"categories_nodes":[],"categories_segments":[],"categories_sizes":[],"default_left":[0,0,0,0,0,0,0,0,0],"id":6,"left_children":[1,3,5,-1,-1,-1,7,-1,-1],"loss_changes":[1.0014198E1,7.3798556E0,1.7385514E0,0E0,0E0,0E0,7.6893616E-1,0E0,0E0],"parents":[2147483647,0,0,1,1,2,2,6,6],"right_children":[2,4,6,-1,-1,-1,8,-1,-1],"split_conditions":[3.1015131E0,2.2734447E4,1.5690496E4,9.3482165E-3,-1.1190092E-3,1.048194E-3,6.4000005E-1,-5.761437E-4,-3.7383558E-3],"split_indices":[4,1,8,0,0,0,5,0,0],"split_type":[0,0,0,0,0,0,0,0,0],"sum_hessian":[9.684322E0,3.0166826E0,6.6676397E0,1.759948E0,1.2567346E0,1.3751559E0,5.292484E0,1.0422987E0,4.250185E0],"tree_param":{"num_deleted":"0","num_feature":"12","num_nodes":"9","size_leaf_vector":"1"}},{"base_weights":[-6.0827497E-5,1.5011333E0,-6.829719E-1,9.252401E-3,-1.1162714E-3,-1.0487912E-1,-3.739775E-3,1.526948E-3,-3.7385975E-3],"categories":[],"categories_nodes":[],"categories_segments":[],"categories_sizes":[],"default_left":[0,0,0,0,0,0,0,0,0],"id":7,"left_children":[1,3,5,-1,-1,7,-1,-1,-1],"loss_changes":[9.927959E0,7.2589803E0,1.7336586E0,0E0,0E0,1.7018977E0,0E0,0E0,0E0],"parents":[2147483647,0,0,1,1,2,2,5,5],"right_children":[2,4,6,-1,-1,8,-1,-1,-1],"split_conditions":[3.1015131E0,2.2734447E4,7E0,9.252401E-3,-1.1162714E-3,7.4181223E0,-3.739775E-3,1.526948E-3,-3.7385975E-3],"split_indices":[4,1,6,0,0,4,0,0,0],"split_type":[0,0,0,0,0,0,0,0,0],"sum_hessian":[9.684081E0,3.0279493E0,6.6561313E0,1.7722863E0,1.2556632E0,2.9154222E0,3.740709E0,1.8783996E0,1.0370225E0],"tree_param":{"num_deleted":"0","num_feature":"12","num_nodes":"9","size_leaf_vector":"1"}},{"base_weights":[-6.935469E-5,1.490651E0,-6.8189645E-1,9.158403E-3,-1.1135378E-3,1.0492514E-3,-9.4277626E-1,-3.7358643E-3,-5.611176E-4],"categories":[],"categories_nodes":[],"categories_segments":[],"categories_sizes":[],"default_left":[0,0,0,0,0,0,0,0,0],"id":8,"left_children":[1,3,5,-1,-1,-1,7,-1,-1],"loss_changes":[9.842775E0,7.1409597E0,1.7333338E0,0E0,0E0,0E0,7.718878E-1,0E0,0E0],"parents":[2147483647,0,0,1,1,2,2,6,6],"right_children":[2,4,6,-1,-1,-1,8,-1,-1],"split_conditions":[3.1015131E0,2.2734447E4,1.5690496E4,9.158403E-3,-1.1135378E-3,1.0492514E-3,1.6825523E4,-3.7358643E-3,-5.611176E-4],"split_indices":[4,1,8,0,0,0,8,0,0],"split_type":[0,0,0,0,0,0,0,0,0],"sum_hessian":[9.683818E0,3.0391436E0,6.6446743E0,1.7845489E0,1.2545946E0,1.3748856E0,5.2697887E0,4.231662E0,1.0381268E0],"tree_param":{"num_deleted":"0","num_feature":"12","num_nodes":"9","size_leaf_vector":"1"}},{"base_weights":[-7.733583E-5,1.4802971E0,-6.8082356E-1,9.0661645E-3,-1.1108081E-3,-1.0276824E-1,-3.7370597E-3,1.5272308E-3,-3.735831E-3],"categories":[],"categories_nodes":[],"categories_segments":[],"categories_sizes":[],"default_left":[0,0,0,0,0,0,0,0,0],"id":9,"left_children":[1,3,5,-1,-1,7,-1,-1,-1],"loss_changes":[9.758638E0,7.025695E0,1.7326617E0,0E0,0E0,1.6949364E0,0E0,0E0,0E0],"parents":[2147483647,0,0,1,1,2,2,5,5],"right_children":[2,4,6,-1,-1,8,-1,-1,-1],"split_conditions":[3.1015131E0,2.2734447E4,7E0,9.0661645E-3,-1.1108081E-3,7.4181223E0,-3.7370597E-3,1.5272308E-3,-3.735831E-3],"split_indices":[4,1,6,0,0,4,0,0,0],"split_type":[0,0,0,0,0,0,0,0,0],"sum_hessian":[9.683489E0,3.050266E0,6.6332226E0,1.7967368E0,1.2535291E0,2.910291E0,3.7229316E0,1.8782998E0,1.0319912E0],"tree_param":{"num_deleted":"0","num_feature":"12","num_nodes":"9","size_leaf_vector":"1"}},{"base_weights":[-8.5647815E-5,1.4700688E0,-6.7975014E-1,8.975639E-3,-1.1080838E-3,-1.0245851E-1,-3.7354266E-3,1.5204162E-3,-3.734203E-3],"categories":[],"categories_nodes":[],"categories_segments":[],"categories_sizes":[],"default_left":[0,0,0,0,0,0,0,0,0],"id":10,"left_children":[1,3,5,-1,-1,7,-1,-1,-1],"loss_changes":[9.675516E0,6.913108E0,1.729609E0,0E0,0E0,1.687077E0,0E0,0E0,0E0],"parents":[2147483647,0,0,1,1,2,2,5,5],"right_children":[2,4,6,-1,-1,8,-1,-1,-1],"split_conditions":[3.1015131E0,2.2734447E4,7E0,8.975639E-3,-1.1080838E-3,7.4181223E0,-3.7354266E-3,1.5204162E-3,-3.734203E-3],"split_indices":[4,1,6,0,0,4,0,0,0],"split_type":[0,0,0,0,0,0,0,0,0],"sum_hessian":[9.683136E0,3.0613174E0,6.621819E0,1.8088504E0,1.252467E0,2.90953E0,3.7122889E0,1.8804901E0,1.0290399E0],"tree_param":{"num_deleted":"0","num_feature":"12","num_nodes":"9","size_leaf_vector":"1"}},{"base_weights":[-9.374619E-5,1.459964E0,-6.7867804E-1,8.886777E-3,-1.105364E-3,1.0555976E-3,-9.4053316E-1,-5.425455E-4,-3.7321914E-3],"categories":[],"categories_nodes":[],"categories_segments":[],"categories_sizes":[],"default_left":[0,0,0,0,0,0,0,0,0],"id":11,"left_children":[1,3,5,-1,-1,-1,7,-1,-1],"loss_changes":[9.593398E0,6.803107E0,1.7286074E0,0E0,0E0,0E0,7.750654E-1,0E0,0E0],"parents":[2147483647,0,0,1,1,2,2,6,6],"right_children":[2,4,6,-1,-1,-1,8,-1,-1],"split_conditions":[3.1015131E0,2.2734447E4,1.5690496E4,8.886777E-3,-1.105364E-3,1.0555976E-3,6.4000005E-1,-5.425455E-4,-3.7321914E-3],"split_indices":[4,1,8,0,0,0,5,0,0],"split_type":[0,0,0,0,0,0,0,0,0],"sum_hessian":[9.682735E0,3.0722983E0,6.610437E0,1.8208903E0,1.251408E0,1.3732628E0,5.237174E0,1.0330034E0,4.2041707E0],"tree_param":{"num_deleted":"0","num_feature":"12","num_nodes":"9","size_leaf_vector":"1"}},{"base_weights":[-1.0136564E-4,1.4499805E0,-6.7760754E-1,8.799534E-3,-1.1026491E-3,-1.0025732E-1,-3.7327856E-3,1.5214676E-3,-3.7314724E-3],"categories":[],"categories_nodes":[],"categories_segments":[],"categories_sizes":[],"default_left":[0,0,0,0,0,0,0,0,0],"id":12,"left_children":[1,3,5,-1,-1,7,-1,-1,-1],"loss_changes":[9.512265E0,6.695619E0,1.7289553E0,0E0,0E0,1.6805896E0,0E0,0E0,0E0],"parents":[2147483647,0,0,1,1,2,2,5,5],"right_children":[2,4,6,-1,-1,8,-1,-1,-1],"split_conditions":[3.1015131E0,2.2734447E4,7E0,8.799534E-3,-1.1026491E-3,7.4181223E0,-3.7327856E-3,1.5214676E-3,-3.7314724E-3],"split_indices":[4,1,6,0,0,4,0,0,0],"split_type":[0,0,0,0,0,0,0,0,0],"sum_hessian":[9.68228E0,3.083209E0,6.5990705E0,1.8328567E0,1.2503524E0,2.9041848E0,3.6948855E0,1.8801409E0,1.0240439E0],"tree_param":{"num_deleted":"0","num_feature":"12","num_nodes":"9","size_leaf_vector":"1"}},{"base_weights":[-1.09297056E-4,1.4401159E0,-6.7653745E-1,8.713862E-3,-1.0999386E-3,-9.995478E-2,-3.7311704E-3,1.5146865E-3,-3.7298626E-3],"categories":[],"categories_nodes":[],"categories_segments":[],"categories_sizes":[],"default_left":[0,0,0,0,0,0,0,0,0],"id":13,"left_children":[1,3,5,-1,-1,7,-1,-1,-1],"loss_changes":[9.432099E0,6.5905595E0,1.725898E0,0E0,0E0,1.6727979E0,0E0,0E0,0E0],"parents":[2147483647,0,0,1,1,2,2,5,5],"right_children":[2,4,6,-1,-1,8,-1,-1,-1],"split_conditions":[3.1015131E0,2.2734447E4,7E0,8.713862E-3,-1.0999386E-3,7.4181223E0,-3.7311704E-3,1.5146865E-3,-3.7298626E-3],"split_indices":[4,1,6,0,0,4,0,0,0],"split_type":[0,0,0,0,0,0,0,0,0],"sum_hessian":[9.681792E0,3.09405E0,6.587742E0,1.8447503E0,1.2492996E0,2.903435E0,3.684307E0,1.8823241E0,1.0211108E0],"tree_param":{"num_deleted":"0","num_feature":"12","num_nodes":"9","size_leaf_vector":"1"}},{"base_weights":[-1.17072836E-4,1.430368E0,-6.754686E-1,8.6297225E-3,-1.0972332E-3,1.0618488E-3,-9.3829995E-1,-5.25581E-4,-3.7285164E-3],"categories":[],"categories_nodes":[],"categories_segments":[],"categories_sizes":[],"default_left":[0,0,0,0,0,0,0,0,0],"id":14,"left_children":[1,3,5,-1,-1,-1,7,-1,-1],"loss_changes":[9.352884E0,6.4878583E0,1.723855E0,0E0,0E0,0E0,7.7769613E-1,0E0,0E0],"parents":[2147483647,0,0,1,1,2,2,6,6],"right_children":[2,4,6,-1,-1,-1,8,-1,-1],"split_conditions":[3.1015131E0,2.2734447E4,1.5690496E4,8.6297225E-3,-1.0972332E-3,1.0618488E-3,6.4000005E-1,-5.25581E-4,-3.7285164E-3],"split_indices":[4,1,8,0,0,0,5,0,0],"split_type":[0,0,0,0,0,0,0,0,0],"sum_hessian":[9.681258E0,3.1048217E0,6.576436E0,1.8565714E0,1.2482502E0,1.3716611E0,5.2047753E0,1.0283542E0,4.176421E0],"tree_param":{"num_deleted":"0","num_feature":"12","num_nodes":"9","size_leaf_vector":"1"}},{"base_weights":[-1.2436058E-4,1.4207349E0,-6.744005E-1,8.547071E-3,-1.0945322E-3,-9.77675E-2,-3.7285634E-3,1.5157203E-3,-3.7271676E-3],"categories":[],"categories_nodes":[],"categories_segments":[],"categories_sizes":[],"default_left":[0,0,0,0,0,0,0,0,0],"id":15,"left_children":[1,3,5,-1,-1,7,-1,-1,-1],"loss_changes":[9.274602E0,6.3874445E0,1.7252285E0,0E0,0E0,1.666357E0,0E0,0E0,0E0],"parents":[2147483647,0,0,1,1,2,2,5,5],"right_children":[2,4,6,-1,-1,8,-1,-1,-1],"split_conditions":[3.1015131E0,2.2734447E4,7E0,8.547071E-3,-1.0945322E-3,7.4181223E0,-3.7285634E-3,1.5157203E-3,-3.7271676E-3],"split_indices":[4,1,6,0,0,4,0,0,0],"split_type":[0,0,0,0,0,0,0,0,0],"sum_hessian":[9.680678E0,3.1155243E0,6.565154E0,1.8683205E0,1.247204E0,2.8981287E0,3.6670256E0,1.8819786E0,1.0161501E0],"tree_param":{"num_deleted":"0","num_feature":"12","num_nodes":"9","size_leaf_vector":"1"}},{"base_weights":[-1.3182829E-4,1.4112145E0,-6.7333364E-1,8.46587E-3,-1.0918356E-3,-9.7472176E-2,-3.726966E-3,1.5089719E-3,-3.7255755E-3],"categories":[],"categories_nodes":[],"categories_segments":[],"categories_sizes":[],"default_left":[0,0,0,0,0,0,0,0,0],"id":16,"left_children":[1,3,5,-1,-1,7,-1,-1,-1],"loss_changes":[9.19724E0,6.2892475E0,1.7221658E0,0E0,0E0,1.6586325E0,0E0,0E0,0E0],"parents":[2147483647,0,0,1,1,2,2,5,5],"right_children":[2,4,6,-1,-1,8,-1,-1,-1],"split_conditions":[3.1015131E0,2.2734447E4,7E0,8.46587E-3,-1.0918356E-3,7.4181223E0,-3.726966E-3,1.5089719E-3,-3.7255755E-3],"split_indices":[4,1,6,0,0,4,0,0,0],"split_type":[0,0,0,0,0,0,0,0,0],"sum_hessian":[9.68006E0,3.126159E0,6.553901E0,1.8799982E0,1.2461607E0,2.8973901E0,3.656511E0,1.8841549E0,1.0132351E0],"tree_param":{"num_deleted":"0","num_feature":"12","num_nodes":"9","size_leaf_vector":"1"}},{"base_weights":[-1.3930684E-4,1.4018043E0,-6.722681E-1,8.386079E-3,-1.0891443E-3,-9.717783E-2,-3.7253746E-3,1.502262E-3,-3.7239902E-3],"categories":[],"categories_nodes":[],"categories_segments":[],"categories_sizes":[],"default_left":[0,0,0,0,0,0,0,0,0],"id":17,"left_children":[1,3,5,-1,-1,7,-1,-1,-1],"loss_changes":[9.120779E0,6.1932006E0,1.7191074E0,0E0,0E0,1.650953E0,0E0,0E0,0E0],"parents":[2147483647,0,0,1,1,2,2,5,5],"right_children":[2,4,6,-1,-1,8,-1,-1,-1],"split_conditions":[3.1015131E0,2.2734447E4,7E0,8.386079E-3,-1.0891443E-3,7.4181223E0,-3.7253746E-3,1.502262E-3,-3.7239902E-3],"split_indices":[4,1,6,0,0,4,0,0,0],"split_type":[0,0,0,0,0,0,0,0,0],"sum_hessian":[9.679397E0,3.1367257E0,6.542671E0,1.8916049E0,1.2451208E0,2.89665E0,3.6460211E0,1.8863231E0,1.0103269E0],"tree_param":{"num_deleted":"0","num_feature":"12","num_nodes":"9","size_leaf_vector":"1"}},{"base_weights":[-1.4670163E-4,1.3925028E0,-6.712039E-1,8.307662E-3,-1.0864569E-3,1.0732565E-3,-9.3539745E-1,-3.7239809E-3,-4.984582E-4],"categories":[],"categories_nodes":[],"categories_segments":[],"categories_sizes":[],"default_left":[0,0,0,0,0,0,0,0,0],"id":18,"left_children":[1,3,5,-1,-1,-1,7,-1,-1],"loss_changes":[9.045206E0,6.0992417E0,1.7195475E0,0E0,0E0,0E0,7.8286505E-1,0E0,0E0],"parents":[2147483647,0,0,1,1,2,2,6,6],"right_children":[2,4,6,-1,-1,-1,8,-1,-1],"split_conditions":[3.1015131E0,2.2734447E4,1.5690496E4,8.307662E-3,-1.0864569E-3,1.0732565E-3,1.6825523E4,-3.7239809E-3,-4.984582E-4],"split_indices":[4,1,8,0,0,0,8,0,0],"split_type":[0,0,0,0,0,0,0,0,0],"sum_hessian":[9.678689E0,3.147225E0,6.5314646E0,1.903141E0,1.2440839E0,1.3687387E0,5.162726E0,4.1417546E0,1.020971E0],"tree_param":{"num_deleted":"0","num_feature":"12","num_nodes":"9","size_leaf_vector":"1"}},{"base_weights":[-1.5351825E-4,1.3833078E0,-6.701388E-1,8.230582E-3,-1.0837745E-3,-9.511513E-2,-3.7227725E-3,1.5025052E-3,-3.7213399E-3],"categories":[],"categories_nodes":[],"categories_segments":[],"categories_sizes":[],"default_left":[0,0,0,0,0,0,0,0,0],"id":19,"left_children":[1,3,5,-1,-1,7,-1,-1,-1],"loss_changes":[8.970493E0,6.00731E0,1.7180562E0,0E0,0E0,1.6441722E0,0E0,0E0,0E0],"parents":[2147483647,0,0,1,1,2,2,5,5],"right_children":[2,4,6,-1,-1,8,-1,-1,-1],"split_conditions":[3.1015131E0,2.2734447E4,7E0,8.230582E-3,-1.0837745E-3,7.4181223E0,-3.7227725E-3,1.5025052E-3,-3.7213399E-3],"split_indices":[4,1,6,0,0,4,0,0,0],"split_type":[0,0,0,0,0,0,0,0,0],"sum_hessian":[9.677954E0,3.1576576E0,6.520296E0,1.9146074E0,1.2430502E0,2.891645E0,3.6286514E0,1.8862314E0,1.0054134E0],"tree_param":{"num_deleted":"0","num_feature":"12","num_nodes":"9","size_leaf_vector":"1"}},{"base_weights":[-1.6070482E-4,1.3742179E0,-6.690765E-1,8.154808E-3,-1.081097E-3,-9.482772E-2,-3.721199E-3,1.4958319E-3,-3.719772E-3],"categories":[],"categories_nodes":[],"categories_segments":[],"categories_sizes":[],"default_left":[0,0,0,0,0,0,0,0,0],"id":20,"left_children":[1,3,5,-1,-1,7,-1,-1,-1],"loss_changes":[8.896651E0,5.9173455E0,1.7149947E0,0E0,0E0,1.6365626E0,0E0,0E0,0E0],"parents":[2147483647,0,0,1,1,2,2,5,5],"right_children":[2,4,6,-1,-1,8,-1,-1,-1],"split_conditions":[3.1015131E0,2.2734447E4,7E0,8.154808E-3,-1.081097E-3,7.4181223E0,-3.721199E-3,1.4958319E-3,-3.719772E-3],"split_indices":[4,1,6,0,0,4,0,0,0],"split_type":[0,0,0,0,0,0,0,0,0],"sum_hessian":[9.677165E0,3.168023E0,6.509142E0,1.9260036E0,1.2420195E0,2.8909154E0,3.6182265E0,1.8883919E0,1.0025237E0],"tree_param":{"num_deleted":"0","num_feature":"12","num_nodes":"9","size_leaf_vector":"1"}},{"base_weights":[-1.6767386E-4,1.3652308E0,-6.680155E-1,8.080302E-3,-1.0784237E-3,1.0792866E-3,-9.331876E-1,-4.765295E-4,-3.7206283E-3],"categories":[],"categories_nodes":[],"categories_segments":[],"categories_sizes":[],"default_left":[0,0,0,0,0,0,0,0,0],"id":21,"left_children":[1,3,5,-1,-1,-1,7,-1,-1],"loss_changes":[8.82365E0,5.829292E0,1.7147326E0,0E0,0E0,0E0,7.872596E-1,0E0,0E0],"parents":[2147483647,0,0,1,1,2,2,6,6],"right_children":[2,4,6,-1,-1,-1,8,-1,-1],"split_conditions":[3.1015131E0,2.2734447E4,1.5690496E4,8.080302E-3,-1.0784237E-3,1.0792866E-3,6.4000005E-1,-4.765295E-4,-3.7206283E-3],"split_indices":[4,1,8,0,0,0,5,0,0],"split_type":[0,0,0,0,0,0,0,0,0],"sum_hessian":[9.676333E0,3.1783228E0,6.49801E0,1.937331E0,1.2409918E0,1.3671862E0,5.130824E0,1.0150806E0,4.1157436E0],"tree_param":{"num_deleted":"0","num_feature":"12","num_nodes":"9","size_leaf_vector":"1"}},{"base_weights":[-1.7434022E-4,1.3563446E0,-6.669526E-1,8.007035E-3,-1.0757559E-3,-9.267243E-2,-3.7186705E-3,2.6609683E-3,-1.956088E-3],"categories":[],"categories_nodes":[],"categories_segments":[],"categories_sizes":[],"default_left":[0,0,0,0,0,0,0,0,0],"id":22,"left_children":[1,3,5,-1,-1,7,-1,-1,-1],"loss_changes":[8.751461E0,5.7430935E0,1.7142916E0,0E0,0E0,1.2979896E0,0E0,0E0,0E0],"parents":[2147483647,0,0,1,1,2,2,5,5],"right_children":[2,4,6,-1,-1,8,-1,-1,-1],"split_conditions":[3.1015131E0,2.2734447E4,7E0,8.007035E-3,-1.0757559E-3,-1.6145792E12,-3.7186705E-3,2.6609683E-3,-1.956088E-3],"split_indices":[4,1,6,0,0,9,0,0,0],"split_type":[0,0,0,0,0,0,0,0,0],"sum_hessian":[9.675485E0,3.188557E0,6.486928E0,1.9485893E0,1.2399676E0,2.8856938E0,3.601234E0,1.0314717E0,1.854222E0],"tree_param":{"num_deleted":"0","num_feature":"12","num_nodes":"9","size_leaf_vector":"1"}},{"base_weights":[-1.8105199E-4,1.3475579E0,-6.6588885E-1,7.934973E-3,-1.0730921E-3,-9.2390254E-2,-3.7171138E-3,2.6467806E-3,-1.9525655E-3],"categories":[],"categories_nodes":[],"categories_segments":[],"categories_sizes":[],"default_left":[0,0,0,0,0,0,0,0,0],"id":23,"left_children":[1,3,5,-1,-1,7,-1,-1,-1],"loss_changes":[8.680082E0,5.6586986E0,1.7112443E0,0E0,0E0,1.2890456E0,0E0,0E0,0E0],"parents":[2147483647,0,0,1,1,2,2,5,5],"right_children":[2,4,6,-1,-1,8,-1,-1,-1],"split_conditions":[3.1015131E0,2.2734447E4,7E0,7.934973E-3,-1.0730921E-3,-1.6145792E12,-3.7171138E-3,2.6467806E-3,-1.9525655E-3],"split_indices":[4,1,6,0,0,9,0,0,0],"split_type":[0,0,0,0,0,0,0,0,0],"sum_hessian":[9.674618E0,3.1987257E0,6.4758925E0,1.9597796E0,1.2389461E0,2.8850193E0,3.5908732E0,1.033576E0,1.8514434E0],"tree_param":{"num_deleted":"0","num_feature":"12","num_nodes":"9","size_leaf_vector":"1"}},{"base_weights":[-1.8757554E-4,1.338869E0,-6.648262E-1,7.864089E-3,-1.0704328E-3,1.08868E-3,-9.3103987E-1,-4.603427E-4,-3.7171864E-3],"categories":[],"categories_nodes":[],"categories_segments":[],"categories_sizes":[],"default_left":[0,0,0,0,0,0,0,0,0],"id":24,"left_children":[1,3,5,-1,-1,-1,7,-1,-1],"loss_changes":[8.609505E0,5.5760546E0,1.712101E0,0E0,0E0,0E0,7.897382E-1,0E0,0E0],"parents":[2147483647,0,0,1,1,2,2,6,6],"right_children":[2,4,6,-1,-1,-1,8,-1,-1],"split_conditions":[3.1015131E0,2.2734447E4,1.5690496E4,7.864089E-3,-1.0704328E-3,1.08868E-3,6.4000005E-1,-4.603427E-4,-3.7171864E-3],"split_indices":[4,1,8,0,0,0,5,0,0],"split_type":[0,0,0,0,0,0,0,0,0],"sum_hessian":[9.67371E0,3.2088296E0,6.46488E0,1.9709021E0,1.2379277E0,1.3648007E0,5.1000795E0,1.0107561E0,4.089323E0],"tree_param":{"num_deleted":"0","num_feature":"12","num_nodes":"9","size_leaf_vector":"1"}},{"base_weights":[-1.93841E-4,1.330276E0,-6.6376555E-1,7.7943513E-3,-1.0677782E-3,-9.0246305E-2,-3.7146183E-3,2.64283E-3,-1.9453446E-3],"categories":[],"categories_nodes":[],"categories_segments":[],"categories_sizes":[],"default_left":[0,0,0,0,0,0,0,0,0],"id":25,"left_children":[1,3,5,-1,-1,7,-1,-1,-1],"loss_changes":[8.539717E0,5.4951153E0,1.7105494E0,0E0,0E0,1.2818286E0,0E0,0E0,0E0],"parents":[2147483647,0,0,1,1,2,2,5,5],"right_children":[2,4,6,-1,-1,8,-1,-1,-1],"split_conditions":[3.1015131E0,2.2734447E4,7E0,7.7943513E-3,-1.0677782E-3,-1.6145792E12,-3.7146183E-3,2.64283E-3,-1.9453446E-3],"split_indices":[4,1,6,0,0,9,0,0,0],"split_type":[0,0,0,0,0,0,0,0,0],"sum_hessian":[9.67275E0,3.2188692E0,6.4538813E0,1.981957E0,1.2369123E0,2.8798795E0,3.5740018E0,1.0341542E0,1.8457252E0],"tree_param":{"num_deleted":"0","num_feature":"12","num_nodes":"9","size_leaf_vector":"1"}},{"base_weights":[-2.0032002E-4,1.3217771E0,-6.627048E-1,7.725732E-3,-1.0651284E-3,1.0910805E-3,-9.295423E-1,-4.5159282E-4,-3.714713E-3],"categories":[],"categories_nodes":[],"categories_segments":[],"categories_sizes":[],"default_left":[0,0,0,0,0,0,0,0,0],"id":26,"left_children":[1,3,5,-1,-1,-1,7,-1,-1],"loss_changes":[8.470699E0,5.415831E0,1.7078884E0,0E0,0E0,0E0,7.9059124E-1,0E0,0E0],"parents":[2147483647,0,0,1,1,2,2,6,6],"right_children":[2,4,6,-1,-1,-1,8,-1,-1],"split_conditions":[3.1015131E0,2.2734447E4,1.5690496E4,7.725732E-3,-1.0651284E-3,1.0910805E-3,6.4000005E-1,-4.5159282E-4,-3.714713E-3],"split_indices":[4,1,8,0,0,0,5,0,0],"split_type":[0,0,0,0,0,0,0,0,0],"sum_hessian":[9.671767E0,3.2288451E0,6.4429226E0,1.9929451E0,1.2358999E0,1.3641859E0,5.078737E0,1.0084306E0,4.070306E0],"tree_param":{"num_deleted":"0","num_feature":"12","num_nodes":"9","size_leaf_vector":"1"}},{"base_weights":[-2.0637923E-4,1.3133711E0,-6.6164577E-1,2.3211966E0,-1.0624834E-3,-8.811197E-2,-3.7121447E-3,2.7188875E-3,1.2597474E-2,2.638869E-3,-1.9381352E-3],"categories":[],"categories_nodes":[],"categories_segments":[],"categories_sizes":[],"default_left":[0,0,0,0,0,0,0,0,0,0,0],"id":27,"left_children":[1,3,5,7,-1,9,-1,-1,-1,-1,-1],"loss_changes":[8.402448E0,5.338159E0,1.709841E0,4.491251E0,0E0,1.2746373E0,0E0,0E0,0E0,0E0,0E0],"parents":[2147483647,0,0,1,1,2,2,3,3,5,5],"right_children":[2,4,6,8,-1,10,-1,-1,-1,-1,-1],"split_conditions":[3.1015131E0,2.2734447E4,7E0,8.181819E-1,-1.0624834E-3,-1.6145792E12,-3.7121447E-3,2.7188875E-3,1.2597474E-2,2.638869E-3,-1.9381352E-3],"split_indices":[4,1,6,5,0,9,0,0,0,0,0],"split_type":[0,0,0,0,0,0,0,0,0,0,0],"sum_hessian":[9.670735E0,3.2387574E0,6.4319777E0,2.0038664E0,1.2348909E0,2.8747709E0,3.5572066E0,1.0019332E0,1.0019332E0,1.0347339E0,1.8400371E0],"tree_param":{"num_deleted":"0","num_feature":"12","num_nodes":"11","size_leaf_vector":"1"}},{"base_weights":[-2.1433481E-4,1.3050485E0,-6.605867E-1,2.301037E0,-1.0598433E-3,-8.784294E-2,-3.7106148E-3,2.7047114E-3,1.2444736E-2,2.62485E-3,-1.9346258E-3],"categories":[],"categories_nodes":[],"categories_segments":[],"categories_sizes":[],"default_left":[0,0,0,0,0,0,0,0,0,0,0],"id":28,"left_children":[1,3,5,7,-1,9,-1,-1,-1,-1,-1],"loss_changes":[8.3348875E0,5.2619977E0,1.7067797E0,4.3897533E0,0E0,1.2658477E0,0E0,0E0,0E0,0E0,0E0],"parents":[2147483647,0,0,1,1,2,2,3,3,5,5],"right_children":[2,4,6,8,-1,10,-1,-1,-1,-1,-1],"split_conditions":[3.1015131E0,2.2734447E4,7E0,8.181819E-1,-1.0598433E-3,-1.6145792E12,-3.7106148E-3,2.7047114E-3,1.2444736E-2,2.62485E-3,-1.9346258E-3],"split_indices":[4,1,6,5,0,9,0,0,0,0,0],"split_type":[0,0,0,0,0,0,0,0,0,0,0],"sum_hessian":[9.669684E0,3.2486126E0,6.4210715E0,2.0147278E0,1.2338848E0,2.8741224E0,3.546949E0,1.0038586E0,1.0108693E0,1.0368247E0,1.8372977E0],"tree_param":{"num_deleted":"0","num_feature":"12","num_nodes":"11","size_leaf_vector":"1"}},{"base_weights":[-2.2227096E-4,1.2968209E0,-6.5952885E-1,2.2812078E0,-1.0572076E-3,1.1003088E-3,-9.274093E-1,2.6906407E-3,1.2295662E-2,-4.3054073E-4,-3.7115123E-3],"categories":[],"categories_nodes":[],"categories_segments":[],"categories_sizes":[],"default_left":[0,0,0,0,0,0,0,0,0,0,0],"id":29,"left_children":[1,3,5,7,-1,-1,9,-1,-1,-1,-1],"loss_changes":[8.268089E0,5.187408E0,1.7052023E0,4.291601E0,0E0,0E0,7.947502E-1,0E0,0E0,0E0,0E0],"parents":[2147483647,0,0,1,1,2,2,3,3,6,6],"right_children":[2,4,6,8,-1,-1,10,-1,-1,-1,-1],"split_conditions":[3.1015131E0,2.2734447E4,1.5690496E4,8.181819E-1,-1.0572076E-3,1.1003088E-3,3.4652966E1,2.6906407E-3,1.2295662E-2,-4.3054073E-4,-3.7115123E-3],"split_indices":[4,1,8,5,0,0,3,0,0,0,0],"split_type":[0,0,0,0,0,0,0,0,0,0,0],"sum_hessian":[9.668582E0,3.2583923E0,6.410189E0,2.0255108E0,1.2328818E0,1.3618422E0,5.048347E0,1.0057757E0,1.019735E0,1.0028458E0,4.0455017E0],"tree_param":{"num_deleted":"0","num_feature":"12","num_nodes":"11","size_leaf_vector":"1"}},{"base_weights":[-2.2979402E-4,1.2886865E0,-6.58472E-1,2.2617006E0,-1.0545766E-3,-8.572545E-2,-3.7081689E-3,2.676675E-3,1.2150118E-2,2.6209424E-3,-1.9274446E-3],"categories":[],"categories_nodes":[],"categories_segments":[],"categories_sizes":[],"default_left":[0,0,0,0,0,0,0,0,0,0,0],"id":30,"left_children":[1,3,5,7,-1,9,-1,-1,-1,-1,-1],"loss_changes":[8.202041E0,5.114345E0,1.7060428E0,4.1966486E0,0E0,1.2587454E0,0E0,0E0,0E0,0E0,0E0],"parents":[2147483647,0,0,1,1,2,2,3,3,5,5],"right_children":[2,4,6,8,-1,10,-1,-1,-1,-1,-1],"split_conditions":[3.1015131E0,2.2734447E4,7E0,8.181819E-1,-1.0545766E-3,-1.6145792E12,-3.7081689E-3,2.676675E-3,1.2150118E-2,2.6209424E-3,-1.9274446E-3],"split_indices":[4,1,6,5,0,9,0,0,0,0,0],"split_type":[0,0,0,0,0,0,0,0,0,0,0],"sum_hessian":[9.667426E0,3.2680974E0,6.399329E0,2.0362155E0,1.2318817E0,2.8690586E0,3.5302706E0,1.0076846E0,1.028531E0,1.0373982E0,1.8316605E0],"tree_param":{"num_deleted":"0","num_feature":"12","num_nodes":"11","size_leaf_vector":"1"}},{"base_weights":[-2.374263E-4,1.2806438E0,-6.574159E-1,2.2425072E0,-1.0519504E-3,-8.546343E-2,-3.706656E-3,2.6628128E-3,1.2007979E-2,2.6070597E-3,-1.9239432E-3],"categories":[],"categories_nodes":[],"categories_segments":[],"categories_sizes":[],"default_left":[0,0,0,0,0,0,0,0,0,0,0],"id":31,"left_children":[1,3,5,7,-1,9,-1,-1,-1,-1,-1],"loss_changes":[8.136727E0,5.042767E0,1.7029767E0,4.104762E0,0E0,1.2500675E0,0E0,0E0,0E0,0E0,0E0],"parents":[2147483647,0,0,1,1,2,2,3,3,5,5],"right_children":[2,4,6,8,-1,10,-1,-1,-1,-1,-1],"split_conditions":[3.1015131E0,2.2734447E4,7E0,8.181819E-1,-1.0519504E-3,-1.6145792E12,-3.706656E-3,2.6628128E-3,1.2007979E-2,2.6070597E-3,-1.9239432E-3],"split_indices":[4,1,6,5,0,9,0,0,0,0,0],"split_type":[0,0,0,0,0,0,0,0,0,0,0],"sum_hessian":[9.666227E0,3.2777278E0,6.3884997E0,2.046843E0,1.2308848E0,2.8684227E0,3.520077E0,1.0095854E0,1.0372577E0,1.0394783E0,1.8289446E0],"tree_param":{"num_deleted":"0","num_feature":"12","num_nodes":"11","size_leaf_vector":"1"}},{"base_weights":[-2.4479968E-4,1.2726912E0,-6.56361E-1,2.22362E0,-1.0493286E-3,1.1094355E-3,-9.2528516E-1,2.6490537E-3,1.1869123E-2,-3.7079463E-3,-4.2090158E-4],"categories":[],"categories_nodes":[],"categories_segments":[],"categories_sizes":[],"default_left":[0,0,0,0,0,0,0,0,0,0,0],"id":32,"left_children":[1,3,5,7,-1,-1,9,-1,-1,-1,-1],"loss_changes":[8.072141E0,4.972633E0,1.7024794E0,4.015807E0,0E0,0E0,7.9496574E-1,0E0,0E0,0E0,0E0],"parents":[2147483647,0,0,1,1,2,2,3,3,6,6],"right_children":[2,4,6,8,-1,-1,10,-1,-1,-1,-1],"split_conditions":[3.1015131E0,2.2734447E4,1.5690496E4,8.181819E-1,-1.0493286E-3,1.1094355E-3,1.6825523E4,2.6490537E-3,1.1869123E-2,-3.7079463E-3,-4.2090158E-4],"split_indices":[4,1,8,5,0,0,8,0,0,0,0],"split_type":[0,0,0,0,0,0,0,0,0,0,0],"sum_hessian":[9.664977E0,3.2872846E0,6.3776927E0,2.057394E0,1.2298906E0,1.3595252E0,5.0181675E0,1.0114781E0,1.0459158E0,4.0179043E0,1.0002636E0],"tree_param":{"num_deleted":"0","num_feature":"12","num_nodes":"11","size_leaf_vector":"1"}},{"base_weights":[-2.5199648E-4,1.2648269E0,-6.553065E-1,2.2050316E0,-1.0467119E-3,-8.3467394E-2,-3.7042017E-3,2.6353952E-3,1.1733439E-2,2.5997846E-3,-1.9164359E-3],"categories":[],"categories_nodes":[],"categories_segments":[],"categories_sizes":[],"default_left":[0,0,0,0,0,0,0,0,0,0,0],"id":33,"left_children":[1,3,5,7,-1,9,-1,-1,-1,-1,-1],"loss_changes":[8.008262E0,4.903903E0,1.7018588E0,3.9296665E0,0E0,1.2413039E0,0E0,0E0,0E0,0E0,0E0],"parents":[2147483647,0,0,1,1,2,2,3,3,5,5],"right_children":[2,4,6,8,-1,10,-1,-1,-1,-1,-1],"split_conditions":[3.1015131E0,2.2734447E4,7E0,8.181819E-1,-1.0467119E-3,-1.6145792E12,-3.7042017E-3,2.6353952E-3,1.1733439E-2,2.5997846E-3,-1.9164359E-3],"split_indices":[4,1,6,5,0,9,0,0,0,0,0],"split_type":[0,0,0,0,0,0,0,0,0,0,0],"sum_hessian":[9.663683E0,3.2967682E0,6.3669147E0,2.0678685E0,1.2288997E0,2.8636527E0,3.503262E0,1.0133626E0,1.0545058E0,1.0405619E0,1.8230909E0],"tree_param":{"num_deleted":"0","num_feature":"12","num_nodes":"11","size_leaf_vector":"1"}},{"base_weights":[-2.5906548E-4,1.2570497E0,-6.5425336E-1,2.186735E0,-1.0440993E-3,-8.321197E-2,-3.7027043E-3,2.6218372E-3,1.1600818E-2,2.5860616E-3,-1.9129424E-3],"categories":[],"categories_nodes":[],"categories_segments":[],"categories_sizes":[],"default_left":[0,0,0,0,0,0,0,0,0,0,0],"id":34,"left_children":[1,3,5,7,-1,9,-1,-1,-1,-1,-1],"loss_changes":[7.945087E0,4.8365383E0,1.6987894E0,3.846222E0,0E0,1.2327516E0,0E0,0E0,0E0,0E0,0E0],"parents":[2147483647,0,0,1,1,2,2,3,3,5,5],"right_children":[2,4,6,8,-1,10,-1,-1,-1,-1,-1],"split_conditions":[3.1015131E0,2.2734447E4,7E0,8.181819E-1,-1.0440993E-3,-1.6145792E12,-3.7027043E-3,2.6218372E-3,1.1600818E-2,2.5860616E-3,-1.9129424E-3],"split_indices":[4,1,6,5,0,9,0,0,0,0,0],"split_type":[0,0,0,0,0,0,0,0,0,0,0],"sum_hessian":[9.662339E0,3.306179E0,6.3561597E0,2.0782673E0,1.2279116E0,2.8630278E0,3.493132E0,1.0152392E0,1.0630281E0,1.042629E0,1.8203988E0],"tree_param":{"num_deleted":"0","num_feature":"12","num_nodes":"11","size_leaf_vector":"1"}},{"base_weights":[-2.6619172E-4,1.2493576E0,-6.532014E-1,2.1687222E0,-1.0414915E-3,1.1184658E-3,-9.2317045E-1,2.608378E-3,1.1471151E-2,-6.8185304E-4,-3.705464E-3],"categories":[],"categories_nodes":[],"categories_segments":[],"categories_sizes":[],"default_left":[0,0,0,0,0,0,0,0,0,0,0],"id":35,"left_children":[1,3,5,7,-1,-1,9,-1,-1,-1,-1],"loss_changes":[7.882602E0,4.7705007E0,1.6997244E0,3.7653627E0,0E0,0E0,7.1464014E-1,0E0,0E0,0E0,0E0],"parents":[2147483647,0,0,1,1,2,2,3,3,6,6],"right_children":[2,4,6,8,-1,-1,10,-1,-1,-1,-1],"split_conditions":[3.1015131E0,2.2734447E4,1.5690496E4,8.181819E-1,-1.0414915E-3,1.1184658E-3,6.470589E-1,2.608378E-3,1.1471151E-2,-6.8185304E-4,-3.705464E-3],"split_indices":[4,1,8,5,0,0,5,0,0,0,0],"split_type":[0,0,0,0,0,0,0,0,0,0,0],"sum_hessian":[9.660947E0,3.3155177E0,6.345429E0,2.088591E0,1.2269266E0,1.3572335E0,4.9881954E0,1.017108E0,1.0714833E0,1.088333E0,3.8998625E0],"tree_param":{"num_deleted":"0","num_feature":"12","num_nodes":"11","size_leaf_vector":"1"}},{"base_weights":[-2.7286736E-4,1.2417494E0,-6.521484E-1,2.1509876E0,-1.0388889E-3,-8.117347E-2,-3.7003048E-3,2.595017E-3,1.1344344E-2,2.5824415E-3,-1.9059803E-3],"categories":[],"categories_nodes":[],"categories_segments":[],"categories_sizes":[],"default_left":[0,0,0,0,0,0,0,0,0,0,0],"id":36,"left_children":[1,3,5,7,-1,9,-1,-1,-1,-1,-1],"loss_changes":[7.8207836E0,4.7057586E0,1.69785E0,3.686986E0,0E0,1.2260324E0,0E0,0E0,0E0,0E0,0E0],"parents":[2147483647,0,0,1,1,2,2,3,3,5,5],"right_children":[2,4,6,8,-1,10,-1,-1,-1,-1,-1],"split_conditions":[3.1015131E0,2.2734447E4,7E0,8.181819E-1,-1.0388889E-3,-1.6145792E12,-3.7003048E-3,2.595017E-3,1.1344344E-2,2.5824415E-3,-1.9059803E-3],"split_indices":[4,1,6,5,0,9,0,0,0,0,0],"split_type":[0,0,0,0,0,0,0,0,0,0,0],"sum_hessian":[9.659524E0,3.324785E0,6.3347387E0,2.0988402E0,1.2259445E0,2.858171E0,3.4765677E0,1.0189686E0,1.0798718E0,1.0431638E0,1.8150073E0],"tree_param":{"num_deleted":"0","num_feature":"12","num_nodes":"11","size_leaf_vector":"1"}},{"base_weights":[-2.7967786E-4,1.2342238E0,-6.510982E-1,2.1335244E0,-1.0362904E-3,1.1206107E-3,-9.216907E-1,2.581753E-3,1.1220302E-2,-6.732539E-4,-3.7031027E-3],"categories":[],"categories_nodes":[],"categories_segments":[],"categories_sizes":[],"default_left":[0,0,0,0,0,0,0,0,0,0,0],"id":37,"left_children":[1,3,5,7,-1,-1,9,-1,-1,-1,-1],"loss_changes":[7.7596445E0,4.6422753E0,1.6954257E0,3.6109905E0,0E0,0E0,7.1550083E-1,0E0,0E0,0E0,0E0],"parents":[2147483647,0,0,1,1,2,2,3,3,6,6],"right_children":[2,4,6,8,-1,-1,10,-1,-1,-1,-1],"split_conditions":[3.1015131E0,2.2734447E4,1.5690496E4,8.181819E-1,-1.0362904E-3,1.1206107E-3,6.470589E-1,2.581753E-3,1.1220302E-2,-6.732539E-4,-3.7031027E-3],"split_indices":[4,1,8,5,0,0,5,0,0,0,0],"split_type":[0,0,0,0,0,0,0,0,0,0,0],"sum_hessian":[9.658041E0,3.3339808E0,6.32406E0,2.1090155E0,1.2249655E0,1.3566784E0,4.9673815E0,1.0208213E0,1.088194E0,1.0856934E0,3.8816884E0],"tree_param":{"num_deleted":"0","num_feature":"12","num_nodes":"11","size_leaf_vector":"1"}},{"base_weights":[-2.8611554E-4,1.2267793E0,-6.5004677E-1,2.1163256E0,-1.0336961E-3,-7.914448E-2,-3.6979262E-3,2.5685856E-3,1.109893E-2,2.5788103E-3,-1.8990301E-3],"categories":[],"categories_nodes":[],"categories_segments":[],"categories_sizes":[],"default_left":[0,0,0,0,0,0,0,0,0,0,0],"id":38,"left_children":[1,3,5,7,-1,9,-1,-1,-1,-1,-1],"loss_changes":[7.69915E0,4.580013E0,1.696898E0,3.537283E0,0E0,1.2193376E0,0E0,0E0,0E0,0E0,0E0],"parents":[2147483647,0,0,1,1,2,2,3,3,5,5],"right_children":[2,4,6,8,-1,10,-1,-1,-1,-1,-1],"split_conditions":[3.1015131E0,2.2734447E4,7E0,8.181819E-1,-1.0336961E-3,-1.6145792E12,-3.6979262E-3,2.5685856E-3,1.109893E-2,2.5788103E-3,-1.8990301E-3],"split_indices":[4,1,6,5,0,9,0,0,0,0,0],"split_type":[0,0,0,0,0,0,0,0,0,0,0],"sum_hessian":[9.656529E0,3.3431063E0,6.313423E0,2.1191168E0,1.2239892E0,2.8533444E0,3.460079E0,1.0226662E0,1.0964507E0,1.0436999E0,1.8096446E0],"tree_param":{"num_deleted":"0","num_feature":"12","num_nodes":"11","size_leaf_vector":"1"}},{"base_weights":[-2.926774E-4,1.2194145E0,-6.4899826E-1,2.0993857E0,-1.031107E-3,-7.890177E-2,-3.696455E-3,2.5555133E-3,1.0980143E-2,2.5652447E-3,-1.8955498E-3],"categories":[],"categories_nodes":[],"categories_segments":[],"categories_sizes":[],"default_left":[0,0,0,0,0,0,0,0,0,0,0],"id":39,"left_children":[1,3,5,7,-1,9,-1,-1,-1,-1,-1],"loss_changes":[7.639311E0,4.518947E0,1.693816E0,3.4657698E0,0E0,1.2109298E0,0E0,0E0,0E0,0E0,0E0],"parents":[2147483647,0,0,1,1,2,2,3,3,5,5],"right_children":[2,4,6,8,-1,10,-1,-1,-1,-1,-1],"split_conditions":[3.1015131E0,2.2734447E4,7E0,8.181819E-1,-1.031107E-3,-1.6145792E12,-3.696455E-3,2.5555133E-3,1.0980143E-2,2.5652447E-3,-1.8955498E-3],"split_indices":[4,1,6,5,0,9,0,0,0,0,0],"split_type":[0,0,0,0,0,0,0,0,0,0,0],"sum_hessian":[9.654959E0,3.3521614E0,6.302797E0,2.1291456E0,1.223016E0,2.8527443E0,3.4500527E0,1.0245032E0,1.1046423E0,1.0457542E0,1.8069901E0],"tree_param":{"num_deleted":"0","num_feature":"12","num_nodes":"11","size_leaf_vector":"1"}},{"base_weights":[-2.9909084E-4,1.212128E0,-6.479509E-1,2.0826983E0,-1.0285225E-3,1.1294787E-3,-9.195885E-1,2.5425348E-3,1.086386E-2,-6.579659E-4,-3.6999213E-3],"categories":[],"categories_nodes":[],"categories_segments":[],"categories_sizes":[],"default_left":[0,0,0,0,0,0,0,0,0,0,0],"id":40,"left_children":[1,3,5,7,-1,-1,9,-1,-1,-1,-1],"loss_changes":[7.5801086E0,4.459041E0,1.6926131E0,3.396371E0,0E0,0E0,7.177911E-1,0E0,0E0,0E0,0E0],"parents":[2147483647,0,0,1,1,2,2,3,3,6,6],"right_children":[2,4,6,8,-1,-1,10,-1,-1,-1,-1],"split_conditions":[3.1015131E0,2.2734447E4,1.5690496E4,8.181819E-1,-1.0285225E-3,1.1294787E-3,6.470589E-1,2.5425348E-3,1.086386E-2,-6.579659E-4,-3.6999213E-3],"split_indices":[4,1,8,5,0,0,5,0,0,0,0],"split_type":[0,0,0,0,0,0,0,0,0,0,0],"sum_hessian":[9.65334E0,3.3611472E0,6.2921934E0,2.1391015E0,1.2220455E0,1.354427E0,4.9377666E0,1.0263325E0,1.1127691E0,1.0810193E0,3.8567472E0],"tree_param":{"num_deleted":"0","num_feature":"12","num_nodes":"11","size_leaf_vector":"1"}},{"base_weights":[-3.0512724E-4,1.2049187E0,-6.469016E-1,7.697563E-3,1.3292923E-4,-7.688584E-2,-3.6941068E-3,2.5616656E-3,-1.8886165E-3],"categories":[],"categories_nodes":[],"categories_segments":[],"categories_sizes":[],"default_left":[0,0,0,0,0,0,0,0,0],"id":41,"left_children":[1,3,5,-1,-1,7,-1,-1,-1],"loss_changes":[7.5215187E0,4.4280734E0,1.6928506E0,0E0,0E0,1.204312E0,0E0,0E0,0E0],"parents":[2147483647,0,0,1,1,2,2,5,5],"right_children":[2,4,6,-1,-1,8,-1,-1,-1],"split_conditions":[3.1015131E0,3E0,7E0,7.697563E-3,1.3292923E-4,-1.6145792E12,-3.6941068E-3,2.5616656E-3,-1.8886165E-3],"split_indices":[4,7,6,0,0,9,0,0,0],"split_type":[0,0,0,0,0,0,0,0,0],"sum_hessian":[9.651703E0,3.3700638E0,6.2816386E0,1.7117946E0,1.6582692E0,2.8479548E0,3.4336839E0,1.046284E0,1.8016709E0],"tree_param":{"num_deleted":"0","num_feature":"12","num_nodes":"9","size_leaf_vector":"1"}},{"base_weights":[-3.103394E-4,1.1975586E0,-6.458559E-1,2.0557568E0,-1.0341905E-3,-7.664982E-2,-3.6926512E-3,2.505072E-3,1.0709225E-2,2.5482285E-3,-1.8851444E-3],"categories":[],"categories_nodes":[],"categories_segments":[],"categories_sizes":[],"default_left":[0,0,0,0,0,0,0,0,0,0,0],"id":42,"left_children":[1,3,5,7,-1,9,-1,-1,-1,-1,-1],"loss_changes":[7.4626517E0,4.382474E0,1.6897635E0,3.3258858E0,0E0,1.1960096E0,0E0,0E0,0E0,0E0,0E0],"parents":[2147483647,0,0,1,1,2,2,3,3,5,5],"right_children":[2,4,6,8,-1,10,-1,-1,-1,-1,-1],"split_conditions":[3.1015131E0,2.2734447E4,7E0,8.181819E-1,-1.0341905E-3,-1.6145792E12,-3.6926512E-3,2.505072E-3,1.0709225E-2,2.5482285E-3,-1.8851444E-3],"split_indices":[4,1,6,5,0,9,0,0,0,0,0],"split_type":[0,0,0,0,0,0,0,0,0,0,0],"sum_hessian":[9.650646E0,3.3795588E0,6.2710876E0,2.155386E0,1.2241728E0,2.8473663E0,3.423721E0,1.0316421E0,1.1237438E0,1.0483277E0,1.7990388E0],"tree_param":{"num_deleted":"0","num_feature":"12","num_nodes":"11","size_leaf_vector":"1"}},{"base_weights":[-3.1650515E-4,1.1904941E0,-6.4481133E-1,7.5959964E-3,1.1974155E-4,1.1382462E-3,-9.174947E-1,-6.4271316E-4,-3.6967895E-3],"categories":[],"categories_nodes":[],"categories_segments":[],"categories_sizes":[],"default_left":[0,0,0,0,0,0,0,0,0],"id":43,"left_children":[1,3,5,-1,-1,-1,7,-1,-1],"loss_changes":[7.405278E0,4.348266E0,1.6897633E0,0E0,0E0,0E0,7.200813E-1,0E0,0E0],"parents":[2147483647,0,0,1,1,2,2,6,6],"right_children":[2,4,6,-1,-1,-1,8,-1,-1],"split_conditions":[3.1015131E0,3E0,1.5690496E4,7.5959964E-3,1.1974155E-4,1.1382462E-3,6.470589E-1,-6.4271316E-4,-3.6967895E-3],"split_indices":[4,7,8,0,0,0,5,0,0],"split_type":[0,0,0,0,0,0,0,0,0],"sum_hessian":[9.648919E0,3.3883593E0,6.2605596E0,1.7258415E0,1.6625178E0,1.3522015E0,4.908358E0,1.0763849E0,3.831973E0],"tree_param":{"num_deleted":"0","num_feature":"12","num_nodes":"9","size_leaf_vector":"1"}},{"base_weights":[-3.2136493E-4,1.183277E0,-6.4376426E-1,2.0294445E0,-1.0397396E-3,-7.4647196E-2,-3.6903338E-3,2.4683294E-3,1.0558872E-2,2.5461826E-3,-1.8785414E-3],"categories":[],"categories_nodes":[],"categories_segments":[],"categories_sizes":[],"default_left":[0,0,0,0,0,0,0,0,0,0,0],"id":44,"left_children":[1,3,5,7,-1,9,-1,-1,-1,-1,-1],"loss_changes":[7.347589E0,4.3080707E0,1.6887832E0,3.2579308E0,0E0,1.1903285E0,0E0,0E0,0E0,0E0,0E0],"parents":[2147483647,0,0,1,1,2,2,3,3,5,5],"right_children":[2,4,6,8,-1,10,-1,-1,-1,-1,-1],"split_conditions":[3.1015131E0,2.2734447E4,7E0,8.181819E-1,-1.0397396E-3,4.7379303E0,-3.6903338E-3,2.4683294E-3,1.0558872E-2,2.5461826E-3,-1.8785414E-3],"split_indices":[4,1,6,5,0,4,0,0,0,0,0],"split_type":[0,0,0,0,0,0,0,0,0,0,0],"sum_hessian":[9.647836E0,3.3977487E0,6.250087E0,2.1714923E0,1.2262564E0,2.8426147E0,3.4074724E0,1.0368915E0,1.1346009E0,1.0486267E0,1.7939879E0],"tree_param":{"num_deleted":"0","num_feature":"12","num_nodes":"11","size_leaf_vector":"1"}},{"base_weights":[-3.274222E-4,1.1763529E0,-6.427214E-1,7.4968883E-3,1.0678313E-4,-7.441781E-2,-3.6888935E-3,2.5473635E-3,-1.8780871E-3],"categories":[],"categories_nodes":[],"categories_segments":[],"categories_sizes":[],"default_left":[0,0,0,0,0,0,0,0,0],"id":45,"left_children":[1,3,5,-1,-1,7,-1,-1,-1],"loss_changes":[7.291383E0,4.2708254E0,1.6856935E0,0E0,0E0,1.1904885E0,0E0,0E0,0E0],"parents":[2147483647,0,0,1,1,2,2,5,5],"right_children":[2,4,6,-1,-1,8,-1,-1,-1],"split_conditions":[3.1015131E0,3E0,7E0,7.4968883E-3,1.0678313E-4,-1.6145792E12,-3.6888935E-3,2.5473635E-3,-1.8780871E-3],"split_indices":[4,7,6,0,0,9,0,0,0],"split_type":[0,0,0,0,0,0,0,0,0],"sum_hessian":[9.646047E0,3.4064348E0,6.239611E0,1.739742E0,1.6666929E0,2.8420382E0,3.3975732E0,1.048436E0,1.7936022E0],"tree_param":{"num_deleted":"0","num_feature":"12","num_nodes":"9","size_leaf_vector":"1"}},{"base_weights":[-3.3236787E-4,1.1692748E0,-6.4167935E-1,2.0037398E0,-1.0451726E-3,1.1425756E-3,-9.1532093E-1,1.6624506E-3,1.2451833E-2,-6.2740553E-4,-3.6935345E-3],"categories":[],"categories_nodes":[],"categories_segments":[],"categories_sizes":[],"default_left":[0,0,0,0,0,0,0,0,0,0,0],"id":46,"left_children":[1,3,5,7,-1,-1,9,-1,-1,-1,-1],"loss_changes":[7.234866E0,4.2357435E0,1.6840947E0,5.8083534E0,0E0,0E0,7.222829E-1,0E0,0E0,0E0,0E0],"parents":[2147483647,0,0,1,1,2,2,3,3,6,6],"right_children":[2,4,6,8,-1,-1,10,-1,-1,-1,-1],"split_conditions":[3.1015131E0,2.2734447E4,1.5690496E4,8.4375006E-1,-1.0451726E-3,1.1425756E-3,6.470589E-1,1.6624506E-3,1.2451833E-2,-6.2740553E-4,-3.6935345E-3],"split_indices":[4,1,8,5,0,0,5,0,0,0,0],"split_type":[0,0,0,0,0,0,0,0,0,0,0],"sum_hessian":[9.64488E0,3.4157193E0,6.2291613E0,2.1874223E0,1.228297E0,1.3510697E0,4.8780913E0,1.184199E0,1.0032234E0,1.0717744E0,3.806317E0],"tree_param":{"num_deleted":"0","num_feature":"12","num_nodes":"11","size_leaf_vector":"1"}},{"base_weights":[-3.3895284E-4,1.1624956E0,-6.406345E-1,7.3971055E-3,9.5398456E-5,-7.242899E-2,-3.6866057E-3,2.5437907E-3,-1.8711928E-3],"categories":[],"categories_nodes":[],"categories_segments":[],"categories_sizes":[],"default_left":[0,0,0,0,0,0,0,0,0],"id":47,"left_children":[1,3,5,-1,-1,7,-1,-1,-1],"loss_changes":[7.1798E0,4.19051E0,1.6846962E0,0E0,0E0,1.1839606E0,0E0,0E0,0E0],"parents":[2147483647,0,0,1,1,2,2,5,5],"right_children":[2,4,6,-1,-1,8,-1,-1,-1],"split_conditions":[3.1015131E0,3E0,7E0,7.3971055E-3,9.5398456E-5,-1.6145792E12,-3.6866057E-3,2.5437907E-3,-1.8711928E-3],"split_indices":[4,7,6,0,0,9,0,0,0],"split_type":[0,0,0,0,0,0,0,0,0],"sum_hessian":[9.643026E0,3.4242582E0,6.2187686E0,1.7539157E0,1.6703427E0,2.8373263E0,3.381442E0,1.0489656E0,1.7883607E0],"tree_param":{"num_deleted":"0","num_feature":"12","num_nodes":"9","size_leaf_vector":"1"}},{"base_weights":[-3.4371868E-4,1.155553E0,-6.3959414E-1,1.9786493E0,-1.0504907E-3,-7.220614E-2,-3.6851808E-3,1.6367238E-3,1.2262039E-2,2.5403458E-3,-1.869799E-3],"categories":[],"categories_nodes":[],"categories_segments":[],"categories_sizes":[],"default_left":[0,0,0,0,0,0,0,0,0,0,0],"id":48,"left_children":[1,3,5,7,-1,9,-1,-1,-1,-1,-1],"loss_changes":[7.1244125E0,4.165485E0,1.6816022E0,5.6767006E0,0E0,1.181471E0,0E0,0E0,0E0,0E0,0E0],"parents":[2147483647,0,0,1,1,2,2,3,3,5,5],"right_children":[2,4,6,8,-1,10,-1,-1,-1,-1,-1],"split_conditions":[3.1015131E0,2.2734447E4,7E0,8.4375006E-1,-1.0504907E-3,4.7379303E0,-3.6851808E-3,1.6367238E-3,1.2262039E-2,2.5403458E-3,-1.869799E-3],"split_indices":[4,1,6,5,0,4,0,0,0,0,0],"split_type":[0,0,0,0,0,0,0,0,0,0,0],"sum_hessian":[9.641807E0,3.433437E0,6.2083697E0,2.2031422E0,1.2302951E0,2.8367643E0,3.3716054E0,1.1889365E0,1.0142056E0,1.0494848E0,1.7872794E0],"tree_param":{"num_deleted":"0","num_feature":"12","num_nodes":"11","size_leaf_vector":"1"}},{"base_weights":[-3.503179E-4,1.1489092E0,-6.3855463E-1,1.963712E0,-1.0478717E-3,-7.198381E-2,-3.6837615E-3,1.6294899E-3,1.2124909E-2,2.533103E-3,-1.8676094E-3],"categories":[],"categories_nodes":[],"categories_segments":[],"categories_sizes":[],"default_left":[0,0,0,0,0,0,0,0,0,0,0],"id":49,"left_children":[1,3,5,7,-1,9,-1,-1,-1,-1,-1],"loss_changes":[7.0704765E0,4.112764E0,1.6785138E0,5.565345E0,0E0,1.1767952E0,0E0,0E0,0E0,0E0,0E0],"parents":[2147483647,0,0,1,1,2,2,3,3,5,5],"right_children":[2,4,6,8,-1,10,-1,-1,-1,-1,-1],"split_conditions":[3.1015131E0,2.2734447E4,7E0,8.4375006E-1,-1.0478717E-3,-1.6145792E12,-3.6837615E-3,1.6294899E-3,1.2124909E-2,2.533103E-3,-1.8676094E-3],"split_indices":[4,1,6,5,0,9,0,0,0,0,0],"split_type":[0,0,0,0,0,0,0,0,0,0,0],"sum_hessian":[9.639849E0,3.4418538E0,6.197995E0,2.2125509E0,1.2293029E0,2.8362029E0,3.3617926E0,1.1902723E0,1.0222785E0,1.0505877E0,1.7856151E0],"tree_param":{"num_deleted":"0","num_feature":"12","num_nodes":"11","size_leaf_vector":"1"}},{"base_weights":[-3.568018E-4,1.1423353E0,-6.375162E-1,7.265237E-3,7.342644E-5,1.1534578E-3,-9.125386E-1,-6.054066E-4,-3.6895399E-3],"categories":[],"categories_nodes":[],"categories_segments":[],"categories_sizes":[],"default_left":[0,0,0,0,0,0,0,0,0],"id":50,"left_children":[1,3,5,-1,-1,-1,7,-1,-1],"loss_changes":[7.0171E0,4.095415E0,1.6798413E0,0E0,0E0,0E0,7.2593164E-1,0E0,0E0],"parents":[2147483647,0,0,1,1,2,2,6,6],"right_children":[2,4,6,-1,-1,-1,8,-1,-1],"split_conditions":[3.1015131E0,3E0,1.5690496E4,7.265237E-3,7.342644E-5,1.1534578E-3,6.470589E-1,-6.054066E-4,-3.6895399E-3],"split_indices":[4,7,8,0,0,0,5,0,0],"split_type":[0,0,0,0,0,0,0,0,0],"sum_hessian":[9.637842E0,3.4501965E0,6.1876454E0,1.7728372E0,1.6773593E0,1.3482859E0,4.8393593E0,1.0651927E0,3.7741668E0],"tree_param":{"num_deleted":"0","num_feature":"12","num_nodes":"9","size_leaf_vector":"1"}},{"base_weights":[-3.6120127E-4,1.1355866E0,-6.3647413E-1,1.9395248E0,-1.0530361E-3,-7.001245E-2,-3.6815132E-3,1.6043885E-3,1.1944819E-2,2.5318142E-3,-1.8612142E-3],"categories":[],"categories_nodes":[],"categories_segments":[],"categories_sizes":[],"default_left":[0,0,0,0,0,0,0,0,0,0,0],"id":51,"left_children":[1,3,5,7,-1,9,-1,-1,-1,-1,-1],"loss_changes":[6.9633174E0,4.045703E0,1.6774998E0,5.442524E0,0E0,1.1716332E0,0E0,0E0,0E0,0E0,0E0],"parents":[2147483647,0,0,1,1,2,2,3,3,5,5],"right_children":[2,4,6,8,-1,10,-1,-1,-1,-1,-1],"split_conditions":[3.1015131E0,2.2734447E4,7E0,8.4375006E-1,-1.0530361E-3,4.7379303E0,-3.6815132E-3,1.6043885E-3,1.1944819E-2,2.5318142E-3,-1.8612142E-3],"split_indices":[4,1,6,5,0,4,0,0,0,0,0],"split_type":[0,0,0,0,0,0,0,0,0,0,0],"sum_hessian":[9.636583E0,3.4592218E0,6.177361E0,2.2279809E0,1.231241E0,2.831538E0,3.345823E0,1.194929E0,1.0330517E0,1.0507646E0,1.7807734E0],"tree_param":{"num_deleted":"0","num_feature":"12","num_nodes":"11","size_leaf_vector":"1"}},{"base_weights":[-3.676002E-4,1.1291419E0,-6.354373E-1,7.171207E-3,6.254647E-5,-6.979681E-2,-3.6801093E-3,2.5321243E-3,-1.8606337E-3],"categories":[],"categories_nodes":[],"categories_segments":[],"categories_sizes":[],"default_left":[0,0,0,0,0,0,0,0,0],"id":52,"left_children":[1,3,5,-1,-1,7,-1,-1,-1],"loss_changes":[6.9110084E0,4.020601E0,1.6744072E0,0E0,0E0,1.1713303E0,0E0,0E0,0E0],"parents":[2147483647,0,0,1,1,2,2,5,5],"right_children":[2,4,6,-1,-1,8,-1,-1,-1],"split_conditions":[3.1015131E0,3E0,7E0,7.171207E-3,6.254647E-5,-1.6145792E12,-3.6801093E-3,2.5321243E-3,-1.8606337E-3],"split_indices":[4,7,6,0,0,9,0,0,0],"split_type":[0,0,0,0,0,0,0,0,0],"sum_hessian":[9.634507E0,3.4674442E0,6.167063E0,1.7866151E0,1.680829E0,2.8309898E0,3.3360734E0,1.0507101E0,1.7802796E0],"tree_param":{"num_deleted":"0","num_feature":"12","num_nodes":"9","size_leaf_vector":"1"}},{"base_weights":[-3.7212527E-4,1.1225193E0,-6.344014E-1,1.9158828E0,-1.058092E-3,1.1575476E-3,-9.103796E-1,1.5797254E-3,1.1770079E-2,-5.901648E-4,-3.6863876E-3],"categories":[],"categories_nodes":[],"categories_segments":[],"categories_sizes":[],"default_left":[0,0,0,0,0,0,0,0,0,0,0],"id":53,"left_children":[1,3,5,7,-1,-1,9,-1,-1,-1,-1],"loss_changes":[6.858296E0,3.980462E0,1.6740873E0,5.3242836E0,0E0,0E0,7.2813535E-1,0E0,0E0,0E0,0E0],"parents":[2147483647,0,0,1,1,2,2,3,3,6,6],"right_children":[2,4,6,8,-1,-1,10,-1,-1,-1,-1],"split_conditions":[3.1015131E0,2.2734447E4,1.5690496E4,8.4375006E-1,-1.058092E-3,1.1575476E-3,6.470589E-1,1.5797254E-3,1.1770079E-2,-5.901648E-4,-3.6863876E-3],"split_indices":[4,1,8,5,0,0,5,0,0,0,0],"split_type":[0,0,0,0,0,0,0,0,0,0,0],"sum_hessian":[9.633157E0,3.4763663E0,6.1567903E0,2.2432277E0,1.2331386E0,1.3472062E0,4.809584E0,1.1995293E0,1.0436984E0,1.0606737E0,3.7489102E0],"tree_param":{"num_deleted":"0","num_feature":"12","num_nodes":"11","size_leaf_vector":"1"}},{"base_weights":[-3.780719E-4,1.1162002E0,-6.333616E-1,7.07942E-3,5.185078E-5,-6.7839146E-2,-3.6778897E-3,2.528527E-3,-1.8537871E-3],"categories":[],"categories_nodes":[],"categories_segments":[],"categories_sizes":[],"default_left":[0,0,0,0,0,0,0,0,0],"id":54,"left_children":[1,3,5,-1,-1,7,-1,-1,-1],"loss_changes":[6.807003E0,3.9479861E0,1.6733766E0,0E0,0E0,1.1648823E0,0E0,0E0,0E0],"parents":[2147483647,0,0,1,1,2,2,5,5],"right_children":[2,4,6,-1,-1,8,-1,-1,-1],"split_conditions":[3.1015131E0,3E0,7E0,7.07942E-3,5.185078E-5,-1.6145792E12,-3.6778897E-3,2.528527E-3,-1.8537871E-3],"split_indices":[4,7,6,0,0,9,0,0,0],"split_type":[0,0,0,0,0,0,0,0,0],"sum_hessian":[9.631055E0,3.48447E0,6.146585E0,1.8002372E0,1.6842327E0,2.826364E0,3.320221E0,1.0512431E0,1.7751209E0],"tree_param":{"num_deleted":"0","num_feature":"12","num_nodes":"9","size_leaf_vector":"1"}},{"base_weights":[-3.8245742E-4,1.1096998E0,-6.323272E-1,1.8927677E0,-1.0630419E-3,-6.762985E-2,-3.6765002E-3,1.5554896E-3,1.1600451E-2,2.525797E-3,-1.8525616E-3],"categories":[],"categories_nodes":[],"categories_segments":[],"categories_sizes":[],"default_left":[0,0,0,0,0,0,0,0,0,0,0],"id":55,"left_children":[1,3,5,7,-1,9,-1,-1,-1,-1,-1],"loss_changes":[6.7553134E0,3.9169693E0,1.6702807E0,5.210394E0,0E0,1.1628329E0,0E0,0E0,0E0,0E0,0E0],"parents":[2147483647,0,0,1,1,2,2,3,3,5,5],"right_children":[2,4,6,8,-1,10,-1,-1,-1,-1,-1],"split_conditions":[3.1015131E0,2.2734447E4,7E0,8.4375006E-1,-1.0630419E-3,4.7379303E0,-3.6765002E-3,1.5554896E-3,1.1600451E-2,2.525797E-3,-1.8525616E-3],"split_indices":[4,1,6,5,0,4,0,0,0,0,0],"split_type":[0,0,0,0,0,0,0,0,0,0,0],"sum_hessian":[9.629653E0,3.4932897E0,6.136363E0,2.2582936E0,1.2349961E0,2.8258295E0,3.3105338E0,1.2040739E0,1.0542197E0,1.0516485E0,1.7741809E0],"tree_param":{"num_deleted":"0","num_feature":"12","num_nodes":"11","size_leaf_vector":"1"}},{"base_weights":[-3.88505E-4,1.1035028E0,-6.3129383E-1,6.9897957E-3,4.1335155E-5,1.1615444E-3,-9.082264E-1,-5.706693E-4,-3.6832748E-3],"categories":[],"categories_nodes":[],"categories_segments":[],"categories_sizes":[],"default_left":[0,0,0,0,0,0,0,0,0],"id":56,"left_children":[1,3,5,-1,-1,-1,7,-1,-1],"loss_changes":[6.7050486E0,3.8774824E0,1.6683035E0,0E0,0E0,0E0,7.3162675E-1,0E0,0E0],"parents":[2147483647,0,0,1,1,2,2,6,6],"right_children":[2,4,6,-1,-1,-1,8,-1,-1],"split_conditions":[3.1015131E0,3E0,1.5690496E4,6.9897957E-3,4.1335155E-5,1.1615444E-3,3.8853325E1,-5.706693E-4,-3.6832748E-3],"split_indices":[4,7,8,0,0,0,3,0,0],"split_type":[0,0,0,0,0,0,0,0,0],"sum_hessian":[9.627442E0,3.5012758E0,6.1261663E0,1.8137043E0,1.6875714E0,1.3461459E0,4.78002E0,1.0547348E0,3.7252855E0],"tree_param":{"num_deleted":"0","num_feature":"12","num_nodes":"9","size_leaf_vector":"1"}},{"base_weights":[-3.9257423E-4,1.0971212E0,-6.3025624E-1,9.257651E-3,4.141812E-1,-6.569433E-2,-3.6743002E-3,-1.6562099E-3,5.7711895E-3,2.525821E-3,-1.8465559E-3],"categories":[],"categories_nodes":[],"categories_segments":[],"categories_sizes":[],"default_left":[0,0,0,0,0,0,0,0,0,0,0],"id":57,"left_children":[1,3,5,-1,7,9,-1,-1,-1,-1,-1],"loss_changes":[6.6543326E0,4.0963464E0,1.6691983E0,0E0,3.067414E0,1.1585339E0,0E0,0E0,0E0,0E0,0E0],"parents":[2147483647,0,0,1,1,2,2,4,4,5,5],"right_children":[2,4,6,-1,8,10,-1,-1,-1,-1,-1],"split_conditions":[3.1015131E0,6E0,7E0,9.257651E-3,8.4375006E-1,-1.6145792E12,-3.6743002E-3,-1.6562099E-3,5.7711895E-3,2.525821E-3,-1.8465559E-3],"split_indices":[4,6,6,0,5,9,0,0,0,0,0],"split_type":[0,0,0,0,0,0,0,0,0,0,0],"sum_hessian":[9.626034E0,3.5099945E0,6.1160398E0,1.0022142E0,2.5077803E0,2.8212552E0,3.2947843E0,1.4872019E0,1.0205785E0,1.0516278E0,1.7696275E0],"tree_param":{"num_deleted":"0","num_feature":"12","num_nodes":"11","size_leaf_vector":"1"}},{"base_weights":[-3.9808193E-4,1.0907837E0,-6.2922436E-1,9.16834E-3,4.1243237E-1,-6.549141E-2,-3.6729248E-3,-1.6526749E-3,5.7295063E-3,2.518138E-3,-1.8440749E-3],"categories":[],"categories_nodes":[],"categories_segments":[],"categories_sizes":[],"default_left":[0,0,0,0,0,0,0,0,0,0,0],"id":58,"left_children":[1,3,5,-1,7,9,-1,-1,-1,-1,-1],"loss_changes":[6.604057E0,4.0294304E0,1.6660991E0,0E0,3.0358124E0,1.1535087E0,0E0,0E0,0E0,0E0,0E0],"parents":[2147483647,0,0,1,1,2,2,4,4,5,5],"right_children":[2,4,6,-1,8,10,-1,-1,-1,-1,-1],"split_conditions":[3.1015131E0,6E0,7E0,9.16834E-3,8.4375006E-1,1.577375E4,-3.6729248E-3,-1.6526749E-3,5.7295063E-3,2.518138E-3,-1.8440749E-3],"split_indices":[4,6,6,0,5,8,0,0,0,0,0],"split_type":[0,0,0,0,0,0,0,0,0,0,0],"sum_hessian":[9.624596E0,3.5187016E0,6.1058936E0,1.0086277E0,2.510074E0,2.8207343E0,3.2851593E0,1.4854686E0,1.0246053E0,1.0527122E0,1.7680221E0],"tree_param":{"num_deleted":"0","num_feature":"12","num_nodes":"11","size_leaf_vector":"1"}},{"base_weights":[-4.0354647E-4,1.0845082E0,-6.281936E-1,9.080646E-3,4.1069418E-1,-6.5289065E-2,-3.6715558E-3,-1.6491445E-3,5.6883343E-3,2.515075E-3,-1.8430186E-3],"categories":[],"categories_nodes":[],"categories_segments":[],"categories_sizes":[],"default_left":[0,0,0,0,0,0,0,0,0,0,0],"id":59,"left_children":[1,3,5,-1,7,9,-1,-1,-1,-1,-1],"loss_changes":[6.5542836E0,3.964054E0,1.6630051E0,0E0,3.004651E0,1.1514467E0,0E0,0E0,0E0,0E0,0E0],"parents":[2147483647,0,0,1,1,2,2,4,4,5,5],"right_children":[2,4,6,-1,8,10,-1,-1,-1,-1,-1],"split_conditions":[3.1015131E0,6E0,7E0,9.080646E-3,8.4375006E-1,-1.6145792E12,-3.6715558E-3,-1.6491445E-3,5.6883343E-3,2.515075E-3,-1.8430186E-3],"split_indices":[4,6,6,0,5,9,0,0,0,0,0],"split_type":[0,0,0,0,0,0,0,0,0,0,0],"sum_hessian":[9.623117E0,3.5273473E0,6.0957704E0,1.0149977E0,2.5123496E0,2.8202121E0,3.2755582E0,1.48374E0,1.0286098E0,1.0532607E0,1.7669516E0],"tree_param":{"num_deleted":"0","num_feature":"12","num_nodes":"11","size_leaf_vector":"1"}},{"base_weights":[-4.089243E-4,1.0782938E0,-6.2716365E-1,8.994526E-3,4.0896642E-1,1.1705068E-3,-9.0544236E-1,-1.6456187E-3,5.6476654E-3,-5.477511E-4,-3.6796222E-3],"categories":[],"categories_nodes":[],"categories_segments":[],"categories_sizes":[],"default_left":[0,0,0,0,0,0,0,0,0,0,0],"id":60,"left_children":[1,3,5,-1,7,-1,9,-1,-1,-1,-1],"loss_changes":[6.5050035E0,3.9001727E0,1.6629379E0,0E0,2.9739223E0,0E0,7.357738E-1,0E0,0E0,0E0,0E0],"parents":[2147483647,0,0,1,1,2,2,4,4,6,6],"right_children":[2,4,6,-1,8,-1,10,-1,-1,-1,-1],"split_conditions":[3.1015131E0,6E0,1.5690496E4,8.994526E-3,8.4375006E-1,1.1705068E-3,6.470589E-1,-1.6456187E-3,5.6476654E-3,-5.477511E-4,-3.6796222E-3],"split_indices":[4,6,8,0,5,0,5,0,0,0,0],"split_type":[0,0,0,0,0,0,0,0,0,0,0],"sum_hessian":[9.621606E0,3.535933E0,6.085673E0,1.0213248E0,2.5146081E0,1.3438203E0,4.7418523E0,1.4820161E0,1.032592E0,1.0482535E0,3.6935987E0],"tree_param":{"num_deleted":"0","num_feature":"12","num_nodes":"11","size_leaf_vector":"1"}},{"base_weights":[-4.1405985E-4,1.0721397E0,-6.2612873E-1,1.8431544E0,-1.1113837E-3,-6.336289E-2,-3.6694016E-3,1.5391965E-3,1.113971E-2,2.5128475E-3,-1.836493E-3],"categories":[],"categories_nodes":[],"categories_segments":[],"categories_sizes":[],"default_left":[0,0,0,0,0,0,0,0,0,0,0],"id":61,"left_children":[1,3,5,7,-1,9,-1,-1,-1,-1,-1],"loss_changes":[6.4561877E0,3.850566E0,1.6619365E0,4.83548E0,0E0,1.1458596E0,0E0,0E0,0E0,0E0,0E0],"parents":[2147483647,0,0,1,1,2,2,3,3,5,5],"right_children":[2,4,6,8,-1,10,-1,-1,-1,-1,-1],"split_conditions":[3.1015131E0,2.2734447E4,7E0,8.4375006E-1,-1.1113837E-3,4.7379303E0,-3.6694016E-3,1.5391965E-3,1.113971E-2,2.5128475E-3,-1.836493E-3],"split_indices":[4,1,6,5,0,4,0,0,0,0,0],"split_type":[0,0,0,0,0,0,0,0,0,0,0],"sum_hessian":[9.620112E0,3.5444584E0,6.0756536E0,2.290874E0,1.2535844E0,2.8156722E0,3.2599816E0,1.2071075E0,1.0837665E0,1.0535709E0,1.7621012E0],"tree_param":{"num_deleted":"0","num_feature":"12","num_nodes":"11","size_leaf_vector":"1"}},{"base_weights":[-4.195965E-4,1.0662881E0,-6.251004E-1,8.868191E-3,4.0348095E-1,-6.316695E-2,-3.6680463E-3,-1.6438897E-3,5.5661537E-3,2.5139134E-3,-1.8361589E-3],"categories":[],"categories_nodes":[],"categories_segments":[],"categories_sizes":[],"default_left":[0,0,0,0,0,0,0,0,0,0,0],"id":62,"left_children":[1,3,5,-1,7,9,-1,-1,-1,-1,-1],"loss_changes":[6.408791E0,3.8179636E0,1.6588392E0,0E0,2.9186482E0,1.1460491E0,0E0,0E0,0E0,0E0,0E0],"parents":[2147483647,0,0,1,1,2,2,4,4,5,5],"right_children":[2,4,6,-1,8,10,-1,-1,-1,-1,-1],"split_conditions":[3.1015131E0,6E0,7E0,8.868191E-3,8.4375006E-1,-1.6145792E12,-3.6680463E-3,-1.6438897E-3,5.5661537E-3,2.5139134E-3,-1.8361589E-3],"split_indices":[4,6,6,0,5,9,0,0,0,0,0],"split_type":[0,0,0,0,0,0,0,0,0,0,0],"sum_hessian":[9.617717E0,3.552111E0,6.065606E0,1.0305934E0,2.5215175E0,2.8151639E0,3.250442E0,1.4810679E0,1.0404496E0,1.0534056E0,1.7617583E0],"tree_param":{"num_deleted":"0","num_feature":"12","num_nodes":"11","size_leaf_vector":"1"}},{"base_weights":[-4.2472171E-4,-3.795992E-1,5.7639936E-3,4.9876985E-1,-9.2977583E-1,5.9556756E-3,-1.539328E-1,-3.7459368E-3,-4.935326E-4,2.746404E-3,-3.6862404E-3],"categories":[],"categories_nodes":[],"categories_segments":[],"categories_sizes":[],"default_left":[0,0,0,0,0,0,0,0,0,0,0],"id":63,"left_children":[1,3,-1,5,7,-1,9,-1,-1,-1,-1],"loss_changes":[6.3716617E0,3.8185177E0,0E0,2.5948534E0,7.793822E-1,0E0,1.928292E0,0E0,0E0,0E0,0E0],"parents":[2147483647,0,0,1,1,3,3,4,4,6,6],"right_children":[2,4,-1,6,8,-1,10,-1,-1,-1,-1],"split_conditions":[9.047619E-1,-1.6442661E12,5.7639936E-3,6.666665E-1,1.2076034E2,5.9556756E-3,1.6101608E4,-3.7459368E-3,-4.935326E-4,2.746404E-3,-3.6862404E-3],"split_indices":[5,9,0,5,3,0,8,0,0,0,0],"split_type":[0,0,0,0,0,0,0,0,0,0,0],"sum_hessian":[9.616104E0,7.9015985E0,1.7145053E0,3.0431468E0,4.8584514E0,1.0138685E0,2.0292785E0,3.8450909E0,1.0133605E0,1.0026692E0,1.0266092E0],"tree_param":{"num_deleted":"0","num_feature":"12","num_nodes":"11","size_leaf_vector":"1"}},{"base_weights":[-4.2985295E-4,1.056247E0,-6.233848E-1,1.8189762E0,-1.1257001E-3,-6.1527934E-2,-3.666262E-3,1.5305745E-3,1.0921616E-2,2.5113297E-3,-1.8304341E-3],"categories":[],"categories_nodes":[],"categories_segments":[],"categories_sizes":[],"default_left":[0,0,0,0,0,0,0,0,0,0,0],"id":64,"left_children":[1,3,5,7,-1,9,-1,-1,-1,-1,-1],"loss_changes":[6.3293686E0,3.801106E0,1.6580865E0,4.6621876E0,0E0,1.1409049E0,0E0,0E0,0E0,0E0,0E0],"parents":[2147483647,0,0,1,1,2,2,3,3,5,5],"right_children":[2,4,6,8,-1,10,-1,-1,-1,-1,-1],"split_conditions":[3.1015131E0,2.2734447E4,7E0,8.4375006E-1,-1.1257001E-3,4.7379303E0,-3.666262E-3,1.5305745E-3,1.0921616E-2,2.5113297E-3,-1.8304341E-3],"split_indices":[4,1,6,5,0,4,0,0,0,0,0],"split_type":[0,0,0,0,0,0,0,0,0,0,0],"sum_hessian":[9.61526E0,3.566181E0,6.04908E0,2.3070087E0,1.2591722E0,2.8113263E0,3.2377534E0,1.2087431E0,1.0982655E0,1.0537772E0,1.757549E0],"tree_param":{"num_deleted":"0","num_feature":"12","num_nodes":"11","size_leaf_vector":"1"}},{"base_weights":[-4.3519097E-4,1.0505414E0,-6.223586E-1,3.8066027E-1,9.122377E-3,1.178817E-3,-9.021622E-1,-1.6828491E-3,5.35349E-3,-5.1535503E-4,-3.6751006E-3],"categories":[],"categories_nodes":[],"categories_segments":[],"categories_sizes":[],"default_left":[0,0,0,0,0,0,0,0,0,0,0],"id":65,"left_children":[1,3,5,7,-1,-1,9,-1,-1,-1,-1],"loss_changes":[6.28318E0,4.1042776E0,1.6553912E0,2.8427386E0,0E0,0E0,7.4202013E-1,0E0,0E0,0E0,0E0],"parents":[2147483647,0,0,1,1,2,2,3,3,6,6],"right_children":[2,4,6,8,-1,-1,10,-1,-1,-1,-1],"split_conditions":[3.1015131E0,2.7395103E0,1.5690496E4,1.5988929E4,9.122377E-3,1.178817E-3,3.8853325E1,-1.6828491E-3,5.35349E-3,-5.1535503E-4,-3.6751006E-3],"split_indices":[4,4,8,8,0,0,3,0,0,0,0],"split_type":[0,0,0,0,0,0,0,0,0,0,0],"sum_hessian":[9.61278E0,3.57368E0,6.0390997E0,2.569653E0,1.0040269E0,1.3416541E0,4.6974454E0,1.4964339E0,1.0732192E0,1.0386422E0,3.6588035E0],"tree_param":{"num_deleted":"0","num_feature":"12","num_nodes":"11","size_leaf_vector":"1"}},{"base_weights":[-4.4006313E-4,-3.7800005E-1,5.685928E-3,4.9699298E-1,-9.285664E-1,5.906959E-3,-1.5317921E-1,-3.7441289E-3,-4.8912346E-4,2.7162393E-3,-3.6833878E-3],"categories":[],"categories_nodes":[],"categories_segments":[],"categories_sizes":[],"default_left":[0,0,0,0,0,0,0,0,0,0,0],"id":66,"left_children":[1,3,-1,5,7,-1,9,-1,-1,-1,-1],"loss_changes":[6.255413E0,3.7981832E0,0E0,2.5606399E0,7.7892876E-1,0E0,1.9059875E0,0E0,0E0,0E0,0E0],"parents":[2147483647,0,0,1,1,3,3,4,4,6,6],"right_children":[2,4,-1,6,8,-1,10,-1,-1,-1,-1],"split_conditions":[9.047619E-1,-1.6442661E12,5.685928E-3,6.666665E-1,1.2076034E2,5.906959E-3,1.6101608E4,-3.7441289E-3,-4.8912346E-4,2.7162393E-3,-3.6833878E-3],"split_indices":[5,9,0,5,3,0,8,0,0,0,0],"split_type":[0,0,0,0,0,0,0,0,0,0,0],"sum_hessian":[9.611085E0,7.8842597E0,1.7268255E0,3.0449858E0,4.839274E0,1.0186174E0,2.0263684E0,3.8274755E0,1.0117983E0,1.0062809E0,1.0200875E0],"tree_param":{"num_deleted":"0","num_feature":"12","num_nodes":"11","size_leaf_vector":"1"}},{"base_weights":[-4.450883E-4,1.0407398E0,-6.206375E-1,3.7633467E-1,9.015275E-3,-5.8185052E-2,-3.6637145E-3,-1.6821692E-3,5.2938163E-3,2.5162294E-3,-1.8210566E-3],"categories":[],"categories_nodes":[],"categories_segments":[],"categories_sizes":[],"default_left":[0,0,0,0,0,0,0,0,0,0,0],"id":67,"left_children":[1,3,5,7,-1,9,-1,-1,-1,-1,-1],"loss_changes":[6.2056336E0,4.0324297E0,1.659296E0,2.8037117E0,0E0,1.136324E0,0E0,0E0,0E0,0E0,0E0],"parents":[2147483647,0,0,1,1,2,2,3,3,5,5],"right_children":[2,4,6,8,-1,10,-1,-1,-1,-1,-1],"split_conditions":[3.1015131E0,2.7395103E0,7E0,1.5988929E4,9.015275E-3,-1.6145792E12,-3.6637145E-3,-1.6821692E-3,5.2938163E-3,2.5162294E-3,-1.8210566E-3],"split_indices":[4,4,6,8,0,9,0,0,0,0,0],"split_type":[0,0,0,0,0,0,0,0,0,0,0],"sum_hessian":[9.610175E0,3.587478E0,6.022697E0,2.575876E0,1.0116019E0,2.8035312E0,3.2191656E0,1.4962709E0,1.0796051E0,1.0530078E0,1.7505234E0],"tree_param":{"num_deleted":"0","num_feature":"12","num_nodes":"11","size_leaf_vector":"1"}},{"base_weights":[-4.4996224E-4,-3.7683553E-1,5.6298273E-3,4.9394143E-1,-9.2741406E-1,5.8531575E-3,-1.5319972E-1,-3.742075E-3,-4.871839E-4,2.6933576E-3,-3.6818574E-3],"categories":[],"categories_nodes":[],"categories_segments":[],"categories_sizes":[],"default_left":[0,0,0,0,0,0,0,0,0,0,0],"id":68,"left_children":[1,3,-1,5,7,-1,9,-1,-1,-1,-1],"loss_changes":[6.172739E0,3.7742786E0,0E0,2.5262916E0,7.7773E-1,0E0,1.8907506E0,0E0,0E0,0E0,0E0],"parents":[2147483647,0,0,1,1,3,3,4,4,6,6],"right_children":[2,4,-1,6,8,-1,10,-1,-1,-1,-1],"split_conditions":[9.047619E-1,-1.6442661E12,5.6298273E-3,6.666665E-1,1.2076034E2,5.8531575E-3,1.6101608E4,-3.742075E-3,-4.871839E-4,2.6933576E-3,-3.6818574E-3],"split_indices":[5,9,0,5,3,0,8,0,0,0,0],"split_type":[0,0,0,0,0,0,0,0,0,0,0],"sum_hessian":[9.608376E0,7.8723974E0,1.7359779E0,3.0494645E0,4.822933E0,1.0239403E0,2.0255241E0,3.8119256E0,1.0110075E0,1.0092056E0,1.0163184E0],"tree_param":{"num_deleted":"0","num_feature":"12","num_nodes":"11","size_leaf_vector":"1"}},{"base_weights":[-4.5488274E-4,1.0310827E0,-6.1892456E-1,3.7206283E-1,8.910535E-3,-5.655705E-2,-3.6619685E-3,-1.6814735E-3,5.235215E-3,2.5207174E-3,-1.8168729E-3],"categories":[],"categories_nodes":[],"categories_segments":[],"categories_sizes":[],"default_left":[0,0,0,0,0,0,0,0,0,0,0],"id":69,"left_children":[1,3,5,7,-1,9,-1,-1,-1,-1,-1],"loss_changes":[6.1292973E0,3.962545E0,1.6585228E0,2.7654772E0,0E0,1.1352382E0,0E0,0E0,0E0,0E0,0E0],"parents":[2147483647,0,0,1,1,2,2,3,3,5,5],"right_children":[2,4,6,8,-1,10,-1,-1,-1,-1,-1],"split_conditions":[3.1015131E0,2.7395103E0,7E0,1.5988929E4,8.910535E-3,4.7379303E0,-3.6619685E-3,-1.6814735E-3,5.235215E-3,2.5207174E-3,-1.8168729E-3],"split_indices":[4,4,6,8,0,4,0,0,0,0,0],"split_type":[0,0,0,0,0,0,0,0,0,0,0],"sum_hessian":[9.607416E0,3.601131E0,6.006285E0,2.582026E0,1.0191048E0,2.7997248E0,3.2065604E0,1.4960866E0,1.0859394E0,1.0522708E0,1.747454E0],"tree_param":{"num_deleted":"0","num_feature":"12","num_nodes":"11","size_leaf_vector":"1"}},{"base_weights":[-4.596947E-4,-3.7567228E-1,5.5746026E-3,4.917175E-1,-9.263672E-1,5.803749E-3,-1.5265651E-1,-3.740167E-3,-4.865783E-4,2.673128E-3,-3.6799815E-3],"categories":[],"categories_nodes":[],"categories_segments":[],"categories_sizes":[],"default_left":[0,0,0,0,0,0,0,0,0,0,0],"id":70,"left_children":[1,3,-1,5,7,-1,9,-1,-1,-1,-1],"loss_changes":[6.0914116E0,3.754714E0,0E0,2.4929347E0,7.7621555E-1,0E0,1.8759537E0,0E0,0E0,0E0,0E0],"parents":[2147483647,0,0,1,1,3,3,4,4,6,6],"right_children":[2,4,-1,6,8,-1,10,-1,-1,-1,-1],"split_conditions":[9.047619E-1,-1.6442661E12,5.5746026E-3,6.666665E-1,1.2076034E2,5.803749E-3,1.6101608E4,-3.740167E-3,-4.865783E-4,2.673128E-3,-3.6799815E-3],"split_indices":[5,9,0,5,3,0,8,0,0,0,0],"split_type":[0,0,0,0,0,0,0,0,0,0,0],"sum_hessian":[9.60557E0,7.8605113E0,1.7450582E0,3.0525281E0,4.807983E0,1.0288709E0,2.023657E0,3.7974215E0,1.0105617E0,1.011757E0,1.0119001E0],"tree_param":{"num_deleted":"0","num_feature":"12","num_nodes":"11","size_leaf_vector":"1"}},{"base_weights":[-4.645284E-4,1.0215658E0,-6.172134E-1,3.6784247E-1,8.8080745E-3,-5.493313E-2,-3.66024E-3,-1.6807648E-3,5.177654E-3,2.5212565E-3,-1.811658E-3],"categories":[],"categories_nodes":[],"categories_segments":[],"categories_sizes":[],"default_left":[0,0,0,0,0,0,0,0,0,0,0],"id":71,"left_children":[1,3,5,7,-1,9,-1,-1,-1,-1,-1],"loss_changes":[6.05411E0,3.8945498E0,1.6577458E0,2.7280142E0,0E0,1.1317801E0,0E0,0E0,0E0,0E0,0E0],"parents":[2147483647,0,0,1,1,2,2,3,3,5,5],"right_children":[2,4,6,8,-1,10,-1,-1,-1,-1,-1],"split_conditions":[3.1015131E0,2.7395103E0,7E0,1.5988929E4,8.8080745E-3,1.577375E4,-3.66024E-3,-1.6807648E-3,5.177654E-3,2.5212565E-3,-1.811658E-3],"split_indices":[4,4,6,8,0,8,0,0,0,0,0],"split_type":[0,0,0,0,0,0,0,0,0,0,0],"sum_hessian":[9.604563E0,3.614642E0,5.9899206E0,2.5881052E0,1.0265365E0,2.7959285E0,3.1939921E0,1.4958829E0,1.0922225E0,1.05207E0,1.7438583E0],"tree_param":{"num_deleted":"0","num_feature":"12","num_nodes":"11","size_leaf_vector":"1"}},{"base_weights":[-4.6920788E-4,-3.7451395E-1,5.5203573E-3,4.8971555E-1,-9.253517E-1,5.755087E-3,-1.51919E-1,-3.73833E-3,-4.8596278E-4,2.6531538E-3,-3.677904E-3],"categories":[],"categories_nodes":[],"categories_segments":[],"categories_sizes":[],"default_left":[0,0,0,0,0,0,0,0,0,0,0],"id":72,"left_children":[1,3,-1,5,7,-1,9,-1,-1,-1,-1],"loss_changes":[6.0115957E0,3.7363422E0,0E0,2.4595203E0,7.747512E-1,0E0,1.8608825E0,0E0,0E0,0E0,0E0],"parents":[2147483647,0,0,1,1,3,3,4,4,6,6],"right_children":[2,4,-1,6,8,-1,10,-1,-1,-1,-1],"split_conditions":[9.047619E-1,-1.6442661E12,5.5203573E-3,6.666665E-1,1.2076034E2,5.755087E-3,1.6101608E4,-3.73833E-3,-4.8596278E-4,2.6531538E-3,-3.677904E-3],"split_indices":[5,9,0,5,3,0,8,0,0,0,0],"split_type":[0,0,0,0,0,0,0,0,0,0,0],"sum_hessian":[9.602667E0,7.8486185E0,1.7540487E0,3.055201E0,4.7934175E0,1.0337684E0,2.0214326E0,3.7833083E0,1.010109E0,1.0142787E0,1.007154E0],"tree_param":{"num_deleted":"0","num_feature":"12","num_nodes":"11","size_leaf_vector":"1"}},{"base_weights":[-4.7389587E-4,1.0121858E0,-6.155041E-1,3.6367276E-1,8.70782E-3,-5.3313408E-2,-3.6585291E-3,-1.6800435E-3,5.1211054E-3,2.5169894E-3,-1.8058561E-3],"categories":[],"categories_nodes":[],"categories_segments":[],"categories_sizes":[],"default_left":[0,0,0,0,0,0,0,0,0,0,0],"id":73,"left_children":[1,3,5,7,-1,9,-1,-1,-1,-1,-1],"loss_changes":[5.9800487E0,3.8283734E0,1.656965E0,2.6913013E0,0E0,1.1259109E0,0E0,0E0,0E0,0E0,0E0],"parents":[2147483647,0,0,1,1,2,2,3,3,5,5],"right_children":[2,4,6,8,-1,10,-1,-1,-1,-1,-1],"split_conditions":[3.1015131E0,2.7395103E0,7E0,1.5988929E4,8.70782E-3,4.7379303E0,-3.6585291E-3,-1.6800435E-3,5.1211054E-3,2.5169894E-3,-1.8058561E-3],"split_indices":[4,4,6,8,0,4,0,0,0,0,0],"split_type":[0,0,0,0,0,0,0,0,0,0,0],"sum_hessian":[9.601612E0,3.628012E0,5.9736004E0,2.5941145E0,1.0338974E0,2.7921405E0,3.1814601E0,1.4956598E0,1.0984546E0,1.0527961E0,1.7393442E0],"tree_param":{"num_deleted":"0","num_feature":"12","num_nodes":"11","size_leaf_vector":"1"}},{"base_weights":[-4.7848548E-4,1.0066599E0,-6.144837E-1,3.6216375E-1,8.631741E-3,-5.3147674E-2,-3.6572178E-3,-1.6764738E-3,5.0859395E-3,2.5180322E-3,-1.8056773E-3],"categories":[],"categories_nodes":[],"categories_segments":[],"categories_sizes":[],"default_left":[0,0,0,0,0,0,0,0,0,0,0],"id":74,"left_children":[1,3,5,7,-1,9,-1,-1,-1,-1,-1],"loss_changes":[5.936331E0,3.7718005E0,1.653821E0,2.6648953E0,0E0,1.1261942E0,0E0,0E0,0E0,0E0,0E0],"parents":[2147483647,0,0,1,1,2,2,3,3,5,5],"right_children":[2,4,6,8,-1,10,-1,-1,-1,-1,-1],"split_conditions":[3.1015131E0,2.7395103E0,7E0,1.5988929E4,8.631741E-3,-1.6145792E12,-3.6572178E-3,-1.6764738E-3,5.0859395E-3,2.5180322E-3,-1.8056773E-3],"split_indices":[4,4,6,8,0,9,0,0,0,0,0],"split_type":[0,0,0,0,0,0,0,0,0,0,0],"sum_hessian":[9.599671E0,3.6358564E0,5.9638147E0,2.5962968E0,1.0395596E0,2.7916985E0,3.172116E0,1.4939027E0,1.1023941E0,1.0526568E0,1.7390418E0],"tree_param":{"num_deleted":"0","num_feature":"12","num_nodes":"11","size_leaf_vector":"1"}},{"base_weights":[-4.8301416E-4,-3.7306875E-1,5.4536005E-3,4.8670417E-1,-9.2405945E-1,5.6987787E-3,-1.5182957E-1,-3.736077E-3,-4.8479147E-4,2.6252118E-3,-3.675975E-3],"categories":[],"categories_nodes":[],"categories_segments":[],"categories_sizes":[],"default_left":[0,0,0,0,0,0,0,0,0,0,0],"id":75,"left_children":[1,3,-1,5,7,-1,9,-1,-1,-1,-1],"loss_changes":[5.912741E0,3.710571E0,0E0,2.423349E0,7.728715E-1,0E0,1.8416487E0,0E0,0E0,0E0,0E0],"parents":[2147483647,0,0,1,1,3,3,4,4,6,6],"right_children":[2,4,-1,6,8,-1,10,-1,-1,-1,-1],"split_conditions":[9.047619E-1,-1.6442661E12,5.4536005E-3,6.666665E-1,1.2076034E2,5.6987787E-3,1.6101608E4,-3.736077E-3,-4.8479147E-4,2.6252118E-3,-3.675975E-3],"split_indices":[5,9,0,5,3,0,8,0,0,0,0],"split_type":[0,0,0,0,0,0,0,0,0,0,0],"sum_hessian":[9.597697E0,7.832709E0,1.7649883E0,3.0591586E0,4.77355E0,1.03951E0,2.0196483E0,3.764341E0,1.0092092E0,1.0176636E0,1.0019847E0],"tree_param":{"num_deleted":"0","num_feature":"12","num_nodes":"11","size_leaf_vector":"1"}},{"base_weights":[-4.8760127E-4,9.974849E-1,-6.127751E-1,3.580612E-1,8.535131E-3,-5.153158E-2,-3.6555293E-3,-1.8171383E-3,5.984496E-3,2.5198052E-3,-1.800663E-3],"categories":[],"categories_nodes":[],"categories_segments":[],"categories_sizes":[],"default_left":[0,0,0,0,0,0,0,0,0,0,0],"id":76,"left_children":[1,3,5,7,-1,9,-1,-1,-1,-1,-1],"loss_changes":[5.8639607E0,3.7087426E0,1.6530385E0,3.4430351E0,0E0,1.1234027E0,0E0,0E0,0E0,0E0,0E0],"parents":[2147483647,0,0,1,1,2,2,3,3,5,5],"right_children":[2,4,6,8,-1,10,-1,-1,-1,-1,-1],"split_conditions":[3.1015131E0,2.7395103E0,7E0,1.6083537E4,8.535131E-3,1.577375E4,-3.6555293E-3,-1.8171383E-3,5.984496E-3,2.5198052E-3,-1.800663E-3],"split_indices":[4,4,6,8,0,8,0,0,0,0,0],"split_type":[0,0,0,0,0,0,0,0,0,0,0],"sum_hessian":[9.596581E0,3.6490154E0,5.947566E0,2.6022112E0,1.0468042E0,2.7879202E0,3.1596456E0,1.6020824E0,1.0001289E0,1.0522257E0,1.7356946E0],"tree_param":{"num_deleted":"0","num_feature":"12","num_nodes":"11","size_leaf_vector":"1"}},{"base_weights":[-4.923672E-4,-3.7195593E-1,5.403178E-3,4.8464483E-1,-9.230633E-1,5.6506856E-3,-4.9863243E-4,-3.734279E-3,-4.8452997E-4],"categories":[],"categories_nodes":[],"categories_segments":[],"categories_sizes":[],"default_left":[0,0,0,0,0,0,0,0,0],"id":77,"left_children":[1,3,-1,5,7,-1,-1,-1,-1],"loss_changes":[5.8385415E0,3.69217E0,0E0,2.390686E0,7.713022E-1,0E0,0E0,0E0,0E0],"parents":[2147483647,0,0,1,1,3,3,4,4],"right_children":[2,4,-1,6,8,-1,-1,-1,-1],"split_conditions":[9.047619E-1,-1.6442661E12,5.403178E-3,6.666665E-1,1.2076034E2,5.6506856E-3,-4.9863243E-4,-3.734279E-3,-4.8452997E-4],"split_indices":[5,9,0,5,3,0,0,0,0],"split_type":[0,0,0,0,0,0,0,0,0],"sum_hessian":[9.594513E0,7.8210726E0,1.7734404E0,3.061892E0,4.7591805E0,1.0444399E0,2.0174522E0,3.750354E0,1.0088265E0],"tree_param":{"num_deleted":"0","num_feature":"12","num_nodes":"9","size_leaf_vector":"1"}},{"base_weights":[-4.960535E-4,9.8891175E-1,-6.1115664E-1,6.461777E-3,-1.7321414E-4,-5.000806E-2,-3.6539359E-3,2.5175991E-3,-1.795387E-3],"categories":[],"categories_nodes":[],"categories_segments":[],"categories_sizes":[],"default_left":[0,0,0,0,0,0,0,0,0],"id":78,"left_children":[1,3,5,-1,-1,7,-1,-1,-1],"loss_changes":[5.796394E0,3.6972694E0,1.6522815E0,0E0,0E0,1.1187848E0,0E0,0E0,0E0],"parents":[2147483647,0,0,1,1,2,2,5,5],"right_children":[2,4,6,-1,-1,8,-1,-1,-1],"split_conditions":[3.1015131E0,3E0,7E0,6.461777E-3,-1.7321414E-4,1.577375E4,-3.6539359E-3,2.5175991E-3,-1.795387E-3],"split_indices":[4,7,6,0,0,8,0,0,0],"split_type":[0,0,0,0,0,0,0,0,0],"sum_hessian":[9.593611E0,3.6613665E0,5.9322443E0,1.8960088E0,1.7653577E0,2.7843719E0,3.1478724E0,1.0525484E0,1.7318234E0],"tree_param":{"num_deleted":"0","num_feature":"12","num_nodes":"9","size_leaf_vector":"1"}},{"base_weights":[-4.994835E-4,-3.709217E-1,5.3568585E-3,4.831359E-1,-9.222523E-1,5.5910936E-3,-4.9148814E-4,-3.7331907E-3,-4.8101917E-4],"categories":[],"categories_nodes":[],"categories_segments":[],"categories_sizes":[],"default_left":[0,0,0,0,0,0,0,0,0],"id":79,"left_children":[1,3,-1,5,7,-1,-1,-1,-1],"loss_changes":[5.770687E0,3.6777186E0,0E0,2.3464751E0,7.712641E-1,0E0,0E0,0E0,0E0],"parents":[2147483647,0,0,1,1,3,3,4,4],"right_children":[2,4,-1,6,8,-1,-1,-1,-1],"split_conditions":[9.047619E-1,-1.6442661E12,5.3568585E-3,6.666665E-1,1.2076034E2,5.5910936E-3,-4.9148814E-4,-3.7331907E-3,-4.8101917E-4],"split_indices":[5,9,0,5,3,0,0,0,0],"split_type":[0,0,0,0,0,0,0,0,0],"sum_hessian":[9.591828E0,7.810493E0,1.781335E0,3.0640385E0,4.7464547E0,1.0505328E0,2.0135057E0,3.7387583E0,1.0076963E0],"tree_param":{"num_deleted":"0","num_feature":"12","num_nodes":"9","size_leaf_vector":"1"}},{"base_weights":[-5.0311047E-4,9.803729E-1,-6.095404E-1,1.7158353E0,-1.2178787E-3,-4.84895E-2,-3.652357E-3,1.4425309E-3,1.0146859E-2,2.5160979E-3,-1.790494E-3],"categories":[],"categories_nodes":[],"categories_segments":[],"categories_sizes":[],"default_left":[0,0,0,0,0,0,0,0,0,0,0],"id":80,"left_children":[1,3,5,7,-1,9,-1,-1,-1,-1,-1],"loss_changes":[5.7295103E0,3.6464257E0,1.6515181E0,4.1340427E0,0E0,1.1147316E0,0E0,0E0,0E0,0E0,0E0],"parents":[2147483647,0,0,1,1,2,2,3,3,5,5],"right_children":[2,4,6,8,-1,10,-1,-1,-1,-1,-1],"split_conditions":[3.1015131E0,2.2734447E4,7E0,8.4375006E-1,-1.2178787E-3,4.7379303E0,-3.652357E-3,1.4425309E-3,1.0146859E-2,2.5160979E-3,-1.790494E-3],"split_indices":[4,1,6,5,0,4,0,0,0,0,0],"split_type":[0,0,0,0,0,0,0,0,0,0,0],"sum_hessian":[9.59089E0,3.6739151E0,5.9169745E0,2.3779619E0,1.2959534E0,2.7808354E0,3.1361392E0,1.2255186E0,1.1524432E0,1.0528479E0,1.7279874E0],"tree_param":{"num_deleted":"0","num_feature":"12","num_nodes":"11","size_leaf_vector":"1"}},{"base_weights":[-5.076166E-4,-3.6968565E-1,5.303268E-3,4.813528E-1,-9.21229E-1,5.5538514E-3,-4.9015123E-4,-3.7317858E-3,-4.760007E-4],"categories":[],"categories_nodes":[],"categories_segments":[],"categories_sizes":[],"default_left":[0,0,0,0,0,0,0,0,0],"id":81,"left_children":[1,3,-1,5,7,-1,-1,-1,-1],"loss_changes":[5.691588E0,3.6601408E0,0E0,2.3217452E0,7.7150583E-1,0E0,0E0,0E0,0E0],"parents":[2147483647,0,0,1,1,3,3,4,4],"right_children":[2,4,-1,6,8,-1,-1,-1,-1],"split_conditions":[9.047619E-1,-1.6442661E12,5.303268E-3,6.666665E-1,1.2076034E2,5.5538514E-3,-4.9015123E-4,-3.7317858E-3,-4.760007E-4],"split_indices":[5,9,0,5,3,0,0,0,0],"split_type":[0,0,0,0,0,0,0,0,0],"sum_hessian":[9.588078E0,7.7977304E0,1.790347E0,3.0663354E0,4.731395E0,1.0543681E0,2.0119672E0,3.725146E0,1.0062488E0],"tree_param":{"num_deleted":"0","num_feature":"12","num_nodes":"9","size_leaf_vector":"1"}},{"base_weights":[-5.111943E-4,9.7220814E-1,-6.0792595E-1,6.359331E-3,-1.9321067E-4,-4.6975482E-2,-3.6507926E-3,2.5185572E-3,-1.7864486E-3],"categories":[],"categories_nodes":[],"categories_segments":[],"categories_sizes":[],"default_left":[0,0,0,0,0,0,0,0,0],"id":82,"left_children":[1,3,5,-1,-1,7,-1,-1,-1],"loss_changes":[5.6644883E0,3.628951E0,1.6507492E0,0E0,0E0,1.1129117E0,0E0,0E0,0E0],"parents":[2147483647,0,0,1,1,2,2,5,5],"right_children":[2,4,6,-1,-1,8,-1,-1,-1],"split_conditions":[3.1015131E0,3E0,7E0,6.359331E-3,-1.9321067E-4,-1.6145792E12,-3.6507926E-3,2.5185572E-3,-1.7864486E-3],"split_indices":[4,7,6,0,0,9,0,0,0],"split_type":[0,0,0,0,0,0,0,0,0],"sum_hessian":[9.5871E0,3.6853473E0,5.9017525E0,1.9126918E0,1.7726555E0,2.7773104E0,3.1244419E0,1.0525135E0,1.724797E0],"tree_param":{"num_deleted":"0","num_feature":"12","num_nodes":"9","size_leaf_vector":"1"}},{"base_weights":[-5.1445054E-4,-3.68662E-1,5.2585914E-3,4.788819E-1,-9.202891E-1,5.4926286E-3,-4.855363E-4,-3.7305383E-3,-4.7115356E-4],"categories":[],"categories_nodes":[],"categories_segments":[],"categories_sizes":[],"default_left":[0,0,0,0,0,0,0,0,0],"id":83,"left_children":[1,3,-1,5,7,-1,-1,-1,-1],"loss_changes":[5.626272E0,3.6407356E0,0E0,2.2794135E0,7.7175355E-1,0E0,0E0,0E0,0E0],"parents":[2147483647,0,0,1,1,3,3,4,4],"right_children":[2,4,-1,6,8,-1,-1,-1,-1],"split_conditions":[9.047619E-1,-1.6442661E12,5.2585914E-3,6.666665E-1,1.2076034E2,5.4926286E-3,-4.855363E-4,-3.7305383E-3,-4.7115356E-4],"split_indices":[5,9,0,5,3,0,0,0,0],"split_type":[0,0,0,0,0,0,0,0,0],"sum_hessian":[9.585259E0,7.787188E0,1.7980711E0,3.0701208E0,4.7170672E0,1.0607393E0,2.0093815E0,3.7122915E0,1.0047759E0],"tree_param":{"num_deleted":"0","num_feature":"12","num_nodes":"9","size_leaf_vector":"1"}},{"base_weights":[-5.179146E-4,9.6389383E-1,-6.0631406E-1,1.6915157E0,-1.234179E-3,-4.5468267E-2,-3.6492422E-3,7.710825E-4,1.2257756E-2,2.5304866E-3,-1.7839964E-3],"categories":[],"categories_nodes":[],"categories_segments":[],"categories_sizes":[],"default_left":[0,0,0,0,0,0,0,0,0,0,0],"id":84,"left_children":[1,3,5,7,-1,9,-1,-1,-1,-1,-1],"loss_changes":[5.5994773E0,3.5998242E0,1.6499696E0,7.066361E0,0E0,1.1161195E0,0E0,0E0,0E0,0E0,0E0],"parents":[2147483647,0,0,1,1,2,2,3,3,5,5],"right_children":[2,4,6,8,-1,10,-1,-1,-1,-1,-1],"split_conditions":[3.1015131E0,2.2734447E4,7E0,8.7878793E-1,-1.234179E-3,1.577375E4,-3.6492422E-3,7.710825E-4,1.2257756E-2,2.5304866E-3,-1.7839964E-3],"split_indices":[4,1,6,5,0,8,0,0,0,0,0],"split_type":[0,0,0,0,0,0,0,0,0,0,0],"sum_hessian":[9.584245E0,3.6976604E0,5.8865843E0,2.3951297E0,1.3025308E0,2.7738013E0,3.1127827E0,1.3922558E0,1.0028739E0,1.050495E0,1.7233064E0],"tree_param":{"num_deleted":"0","num_feature":"12","num_nodes":"11","size_leaf_vector":"1"}},{"base_weights":[-5.2321417E-4,9.5899844E-1,-6.053005E-1,3.3443034E-1,8.244782E-3,-4.5326274E-2,-3.6479682E-3,-1.8434557E-3,5.77776E-3,2.517289E-3,-1.7806046E-3],"categories":[],"categories_nodes":[],"categories_segments":[],"categories_sizes":[],"default_left":[0,0,0,0,0,0,0,0,0,0,0],"id":85,"left_children":[1,3,5,7,-1,9,-1,-1,-1,-1,-1],"loss_changes":[5.5599766E0,3.5628288E0,1.6467948E0,3.3350184E0,0E0,1.1082866E0,0E0,0E0,0E0,0E0,0E0],"parents":[2147483647,0,0,1,1,2,2,3,3,5,5],"right_children":[2,4,6,8,-1,10,-1,-1,-1,-1,-1],"split_conditions":[3.1015131E0,2.7395103E0,7E0,1.6083537E4,8.244782E-3,1.577375E4,-3.6479682E-3,-1.8434557E-3,5.77776E-3,2.517289E-3,-1.7806046E-3],"split_indices":[4,4,6,8,0,8,0,0,0,0,0],"split_type":[0,0,0,0,0,0,0,0,0,0,0],"sum_hessian":[9.581251E0,3.7042282E0,5.877023E0,2.6354043E0,1.0688239E0,2.7734115E0,3.1036117E0,1.616399E0,1.0190052E0,1.0525153E0,1.7208962E0],"tree_param":{"num_deleted":"0","num_feature":"12","num_nodes":"11","size_leaf_vector":"1"}},{"base_weights":[-5.275515E-4,-3.6701718E-1,5.1904717E-3,4.7806376E-1,-9.191942E-1,5.4532904E-3,-4.8081353E-4,-3.7290973E-3,-4.6676424E-4],"categories":[],"categories_nodes":[],"categories_segments":[],"categories_sizes":[],"default_left":[0,0,0,0,0,0,0,0,0],"id":86,"left_children":[1,3,-1,5,7,-1,-1,-1,-1],"loss_changes":[5.524853E0,3.625597E0,0E0,2.2502055E0,7.7146864E-1,0E0,0E0,0E0,0E0],"parents":[2147483647,0,0,1,1,3,3,4,4],"right_children":[2,4,-1,6,8,-1,-1,-1,-1],"split_conditions":[9.047619E-1,-1.6442661E12,5.1904717E-3,6.666665E-1,1.2076034E2,5.4532904E-3,-4.8081353E-4,-3.7290973E-3,-4.6676424E-4],"split_indices":[5,9,0,5,3,0,0,0,0],"split_type":[0,0,0,0,0,0,0,0,0],"sum_hessian":[9.579023E0,7.769662E0,1.8093611E0,3.070463E0,4.699199E0,1.0648942E0,2.0055687E0,3.6960063E0,1.0031928E0],"tree_param":{"num_deleted":"0","num_feature":"12","num_nodes":"9","size_leaf_vector":"1"}},{"base_weights":[-5.30896E-4,9.5093125E-1,-6.036893E-1,6.234945E-3,-2.2122388E-4,-4.3821502E-2,-3.6464375E-3,2.5150732E-3,-1.7755672E-3],"categories":[],"categories_nodes":[],"categories_segments":[],"categories_sizes":[],"default_left":[0,0,0,0,0,0,0,0,0],"id":87,"left_children":[1,3,5,-1,-1,7,-1,-1,-1],"loss_changes":[5.4966288E0,3.551647E0,1.6460159E0,0E0,0E0,1.1038573E0,0E0,0E0,0E0],"parents":[2147483647,0,0,1,1,2,2,5,5],"right_children":[2,4,6,-1,-1,8,-1,-1,-1],"split_conditions":[3.1015131E0,3E0,7E0,6.234945E-3,-2.2122388E-4,4.7379303E0,-3.6464375E-3,2.5150732E-3,-1.7755672E-3],"split_indices":[4,7,6,0,0,4,0,0,0],"split_type":[0,0,0,0,0,0,0,0,0],"sum_hessian":[9.577957E0,3.716034E0,5.861923E0,1.9331268E0,1.7829072E0,2.7699087E0,3.0920148E0,1.0529158E0,1.7169927E0],"tree_param":{"num_deleted":"0","num_feature":"12","num_nodes":"9","size_leaf_vector":"1"}},{"base_weights":[-5.340655E-4,-3.6599556E-1,5.1473426E-3,4.764039E-1,-9.1836417E-1,5.397304E-3,-4.7437559E-4,-3.7280086E-3,-4.6330623E-4],"categories":[],"categories_nodes":[],"categories_segments":[],"categories_sizes":[],"default_left":[0,0,0,0,0,0,0,0,0],"id":88,"left_children":[1,3,-1,5,7,-1,-1,-1,-1],"loss_changes":[5.461911E0,3.610441E0,0E0,2.209732E0,7.7138734E-1,0E0,0E0,0E0,0E0],"parents":[2147483647,0,0,1,1,3,3,4,4],"right_children":[2,4,-1,6,8,-1,-1,-1,-1],"split_conditions":[9.047619E-1,-1.6442661E12,5.1473426E-3,6.666665E-1,1.2076034E2,5.397304E-3,-4.7437559E-4,-3.7280086E-3,-4.6330623E-4],"split_indices":[5,9,0,5,3,0,0,0,0],"split_type":[0,0,0,0,0,0,0,0,0],"sum_hessian":[9.576041E0,7.759119E0,1.8169217E0,3.0728364E0,4.6862826E0,1.0708123E0,2.002024E0,3.684205E0,1.0020776E0],"tree_param":{"num_deleted":"0","num_feature":"12","num_nodes":"9","size_leaf_vector":"1"}},{"base_weights":[-5.373701E-4,9.428872E-1,-6.020805E-1,1.6607563E0,-1.25528E-3,-4.232202E-2,-3.6449207E-3,7.4616063E-4,1.19752325E-2,2.5170362E-3,-1.7710722E-3],"categories":[],"categories_nodes":[],"categories_segments":[],"categories_sizes":[],"default_left":[0,0,0,0,0,0,0,0,0,0,0],"id":89,"left_children":[1,3,5,7,-1,9,-1,-1,-1,-1,-1],"loss_changes":[5.4338865E0,3.5416722E0,1.6452315E0,6.826993E0,0E0,1.1015348E0,0E0,0E0,0E0,0E0,0E0],"parents":[2147483647,0,0,1,1,2,2,3,3,5,5],"right_children":[2,4,6,8,-1,10,-1,-1,-1,-1,-1],"split_conditions":[3.1015131E0,2.2734447E4,7E0,8.7878793E-1,-1.25528E-3,1.577375E4,-3.6449207E-3,7.4616063E-4,1.19752325E-2,2.5170362E-3,-1.7710722E-3],"split_indices":[4,1,6,5,0,8,0,0,0,0,0],"split_type":[0,0,0,0,0,0,0,0,0,0,0],"sum_hessian":[9.574941E0,3.728063E0,5.846877E0,2.4169605E0,1.3111026E0,2.766419E0,3.0804584E0,1.3982084E0,1.018752E0,1.0525019E0,1.713917E0],"tree_param":{"num_deleted":"0","num_feature":"12","num_nodes":"11","size_leaf_vector":"1"}},{"base_weights":[-5.424059E-4,9.381676E-1,-6.010703E-1,1.6500843E0,-1.2523184E-3,-4.2189762E-2,-3.6436636E-3,7.4333145E-4,1.1855397E-2,2.5184015E-3,-1.7714552E-3],"categories":[],"categories_nodes":[],"categories_segments":[],"categories_sizes":[],"default_left":[0,0,0,0,0,0,0,0,0,0,0],"id":90,"left_children":[1,3,5,7,-1,9,-1,-1,-1,-1,-1],"loss_changes":[5.395852E0,3.503352E0,1.6420462E0,6.7129493E0,0E0,1.1023254E0,0E0,0E0,0E0,0E0,0E0],"parents":[2147483647,0,0,1,1,2,2,3,3,5,5],"right_children":[2,4,6,8,-1,10,-1,-1,-1,-1,-1],"split_conditions":[3.1015131E0,2.2734447E4,7E0,8.7878793E-1,-1.2523184E-3,-1.6145792E12,-3.6436636E-3,7.4333145E-4,1.1855397E-2,2.5184015E-3,-1.7714552E-3],"split_indices":[4,1,6,5,0,9,0,0,0,0,0],"split_type":[0,0,0,0,0,0,0,0,0,0,0],"sum_hessian":[9.571827E0,3.7344108E0,5.8374166E0,2.4245415E0,1.3098693E0,2.7660472E0,3.0713692E0,1.3988985E0,1.025643E0,1.05246E0,1.7135873E0],"tree_param":{"num_deleted":"0","num_feature":"12","num_nodes":"11","size_leaf_vector":"1"}},{"base_weights":[-5.4730196E-4,9.334924E-1,-6.0006064E-1,6.121171E-3,-2.388801E-4,-4.205783E-2,-3.6424121E-3,2.5060377E-3,-1.7677813E-3],"categories":[],"categories_nodes":[],"categories_segments":[],"categories_sizes":[],"default_left":[0,0,0,0,0,0,0,0,0],"id":91,"left_children":[1,3,5,-1,-1,7,-1,-1,-1],"loss_changes":[5.3581676E0,3.4686184E0,1.6388671E0,0E0,0E0,1.0946941E0,0E0,0E0,0E0],"parents":[2147483647,0,0,1,1,2,2,5,5],"right_children":[2,4,6,-1,-1,8,-1,-1,-1],"split_conditions":[3.1015131E0,3E0,7E0,6.121171E-3,-2.388801E-4,1.577375E4,-3.6424121E-3,2.5060377E-3,-1.7677813E-3],"split_indices":[4,7,6,0,0,8,0,0,0],"split_type":[0,0,0,0,0,0,0,0,0],"sum_hessian":[9.568668E0,3.740687E0,5.8279815E0,1.9519054E0,1.7887815E0,2.765679E0,3.0623026E0,1.0541729E0,1.7115059E0],"tree_param":{"num_deleted":"0","num_feature":"12","num_nodes":"9","size_leaf_vector":"1"}},{"base_weights":[-5.5029284E-4,-3.6392823E-1,5.065277E-3,4.763822E-1,-9.172274E-1,5.350266E-3,-4.6508026E-4,-3.7278756E-3,-7.4467284E-4],"categories":[],"categories_nodes":[],"categories_segments":[],"categories_sizes":[],"default_left":[0,0,0,0,0,0,0,0,0],"id":92,"left_children":[1,3,-1,5,7,-1,-1,-1,-1],"loss_changes":[5.339049E0,3.5969348E0,0E0,2.1716688E0,6.86085E-1,0E0,0E0,0E0,0E0],"parents":[2147483647,0,0,1,1,3,3,4,4],"right_children":[2,4,-1,6,8,-1,-1,-1,-1],"split_conditions":[9.047619E-1,-1.6442661E12,5.065277E-3,6.666665E-1,1.1025944E2,5.350266E-3,-4.6508026E-4,-3.7278756E-3,-7.4467284E-4],"split_indices":[5,9,0,5,3,0,0,0,0],"split_type":[0,0,0,0,0,0,0,0,0],"sum_hessian":[9.566676E0,7.736278E0,1.8303983E0,3.071503E0,4.664775E0,1.0757688E0,1.9957342E0,3.5675151E0,1.0972599E0],"tree_param":{"num_deleted":"0","num_feature":"12","num_nodes":"9","size_leaf_vector":"1"}},{"base_weights":[-5.5338E-4,9.25698E-1,-5.984607E-1,1.6302165E0,-1.2614464E-3,-4.063476E-2,-3.6409053E-3,7.2831725E-4,1.1672186E-2,2.5088985E-3,-1.7644289E-3],"categories":[],"categories_nodes":[],"categories_segments":[],"categories_sizes":[],"default_left":[0,0,0,0,0,0,0,0,0,0,0],"id":93,"left_children":[1,3,5,7,-1,9,-1,-1,-1,-1,-1],"loss_changes":[5.29751E0,3.4580178E0,1.6378698E0,6.557371E0,0E0,1.0935221E0,0E0,0E0,0E0,0E0,0E0],"parents":[2147483647,0,0,1,1,2,2,3,3,5,5],"right_children":[2,4,6,8,-1,10,-1,-1,-1,-1,-1],"split_conditions":[3.1015131E0,2.2734447E4,7E0,8.7878793E-1,-1.2614464E-3,-1.6145792E12,-3.6409053E-3,7.2831725E-4,1.1672186E-2,2.5088985E-3,-1.7644289E-3],"split_indices":[4,1,6,5,0,9,0,0,0,0,0],"split_type":[0,0,0,0,0,0,0,0,0,0,0],"sum_hessian":[9.565518E0,3.7524247E0,5.8130937E0,2.4388468E0,1.3135779E0,2.7623587E0,3.050735E0,1.4025576E0,1.0362892E0,1.0538964E0,1.7084622E0],"tree_param":{"num_deleted":"0","num_feature":"12","num_nodes":"11","size_leaf_vector":"1"}},{"base_weights":[-5.581255E-4,9.211269E-1,-5.974532E-1,7.926657E-3,3.0518255E-1,1.255227E-3,-8.8597775E-1,-1.7377394E-3,4.7385213E-3,-6.1170873E-4,-3.6553089E-3],"categories":[],"categories_nodes":[],"categories_segments":[],"categories_sizes":[],"default_left":[0,0,0,0,0,0,0,0,0,0,0],"id":94,"left_children":[1,3,5,-1,7,-1,9,-1,-1,-1,-1],"loss_changes":[5.260689E0,3.429622E0,1.6375322E0,0E0,2.4979384E0,0E0,6.968126E-1,0E0,0E0,0E0,0E0],"parents":[2147483647,0,0,1,1,2,2,4,4,6,6],"right_children":[2,4,6,-1,8,-1,10,-1,-1,-1,-1],"split_conditions":[3.1015131E0,6E0,1.5690496E4,7.926657E-3,8.4375006E-1,1.255227E-3,3.150962E0,-1.7377394E-3,4.7385213E-3,-6.1170873E-4,-3.6553089E-3],"split_indices":[4,6,8,0,5,0,11,0,0,0,0],"split_type":[0,0,0,0,0,0,0,0,0,0,0],"sum_hessian":[9.562281E0,3.7585607E0,5.80372E0,1.1037822E0,2.6547785E0,1.3222258E0,4.481494E0,1.5296959E0,1.1250826E0,1.0781876E0,3.4033065E0],"tree_param":{"num_deleted":"0","num_feature":"12","num_nodes":"11","size_leaf_vector":"1"}},{"base_weights":[-5.618072E-4,-3.619961E-1,4.989564E-3,4.7577098E-1,-9.1598195E-1,5.319523E-3,-4.6107188E-4,-3.726553E-3,-7.351746E-4],"categories":[],"categories_nodes":[],"categories_segments":[],"categories_sizes":[],"default_left":[0,0,0,0,0,0,0,0,0],"id":95,"left_children":[1,3,-1,5,7,-1,-1,-1,-1],"loss_changes":[5.227623E0,3.581389E0,0E0,2.148854E0,6.8751526E-1,0E0,0E0,0E0,0E0],"parents":[2147483647,0,0,1,1,3,3,4,4],"right_children":[2,4,-1,6,8,-1,-1,-1,-1],"split_conditions":[9.047619E-1,-1.6442661E12,4.989564E-3,6.666665E-1,1.1025944E2,5.319523E-3,-4.6107188E-4,-3.726553E-3,-7.351746E-4],"split_indices":[5,9,0,5,3,0,0,0,0],"split_type":[0,0,0,0,0,0,0,0,0],"sum_hessian":[9.560169E0,7.716648E0,1.8435209E0,3.071604E0,4.6450443E0,1.0790702E0,1.9925337E0,3.5510852E0,1.0939592E0],"tree_param":{"num_deleted":"0","num_feature":"12","num_nodes":"9","size_leaf_vector":"1"}},{"base_weights":[-5.648026E-4,9.135223E-1,-5.9584516E-1,1.6123728E0,-1.2732656E-3,-3.7621293E-2,-3.6386978E-3,7.244537E-4,1.1472314E-2,2.516474E-3,-1.7563109E-3],"categories":[],"categories_nodes":[],"categories_segments":[],"categories_sizes":[],"default_left":[0,0,0,0,0,0,0,0,0,0,0],"id":96,"left_children":[1,3,5,7,-1,9,-1,-1,-1,-1,-1],"loss_changes":[5.2014027E0,3.4235888E0,1.6385345E0,6.3675513E0,0E0,1.0910228E0,0E0,0E0,0E0,0E0,0E0],"parents":[2147483647,0,0,1,1,2,2,3,3,5,5],"right_children":[2,4,6,8,-1,10,-1,-1,-1,-1,-1],"split_conditions":[3.1015131E0,2.2734447E4,7E0,8.7878793E-1,-1.2732656E-3,4.7379303E0,-3.6386978E-3,7.244537E-4,1.1472314E-2,2.516474E-3,-1.7563109E-3],"split_indices":[4,1,6,5,0,4,0,0,0,0,0],"split_type":[0,0,0,0,0,0,0,0,0,0,0],"sum_hessian":[9.558962E0,3.7699633E0,5.7889986E0,2.4515207E0,1.3184426E0,2.7554321E0,3.0335665E0,1.4033959E0,1.0481248E0,1.0525637E0,1.7028685E0],"tree_param":{"num_deleted":"0","num_feature":"12","num_nodes":"11","size_leaf_vector":"1"}},{"base_weights":[-5.693566E-4,9.090536E-1,-5.948396E-1,1.6023022E0,-1.2702759E-3,-3.750343E-2,-3.6374659E-3,7.217181E-4,1.1363069E-2,2.5070605E-3,-1.7541148E-3],"categories":[],"categories_nodes":[],"categories_segments":[],"categories_sizes":[],"default_left":[0,0,0,0,0,0,0,0,0,0,0],"id":97,"left_children":[1,3,5,7,-1,9,-1,-1,-1,-1,-1],"loss_changes":[5.1654224E0,3.387473E0,1.635334E0,6.2656116E0,0E0,1.085635E0,0E0,0E0,0E0,0E0,0E0],"parents":[2147483647,0,0,1,1,2,2,3,3,5,5],"right_children":[2,4,6,8,-1,10,-1,-1,-1,-1,-1],"split_conditions":[3.1015131E0,2.2734447E4,7E0,8.7878793E-1,-1.2702759E-3,-1.6145792E12,-3.6374659E-3,7.217181E-4,1.1363069E-2,2.5070605E-3,-1.7541148E-3],"split_indices":[4,1,6,5,0,9,0,0,0,0,0],"split_type":[0,0,0,0,0,0,0,0,0,0,0],"sum_hessian":[9.555641E0,3.7759535E0,5.7796884E0,2.4587657E0,1.3171877E0,2.7550914E0,3.0245967E0,1.4040666E0,1.0546993E0,1.0541323E0,1.7009591E0],"tree_param":{"num_deleted":"0","num_feature":"12","num_nodes":"11","size_leaf_vector":"1"}},{"base_weights":[-5.7379017E-4,9.046259E-1,-5.938348E-1,5.95228E-3,-2.7655382E-4,1.261863E-3,-8.8355374E-1,-5.9569534E-4,-3.652149E-3],"categories":[],"categories_nodes":[],"categories_segments":[],"categories_sizes":[],"default_left":[0,0,0,0,0,0,0,0,0],"id":98,"left_children":[1,3,5,-1,-1,-1,7,-1,-1],"loss_changes":[5.129767E0,3.362532E0,1.6321845E0,0E0,0E0,0E0,6.988857E-1,0E0,0E0],"parents":[2147483647,0,0,1,1,2,2,6,6],"right_children":[2,4,6,-1,-1,-1,8,-1,-1],"split_conditions":[3.1015131E0,3E0,1.5690496E4,5.95228E-3,-2.7655382E-4,1.261863E-3,3.150962E0,-5.9569534E-4,-3.652149E-3],"split_indices":[4,7,8,0,0,0,11,0,0],"split_type":[0,0,0,0,0,0,0,0,0],"sum_hessian":[9.552276E0,3.7818744E0,5.7704015E0,1.9800186E0,1.8018558E0,1.3205073E0,4.449894E0,1.0731264E0,3.3767676E0],"tree_param":{"num_deleted":"0","num_feature":"12","num_nodes":"9","size_leaf_vector":"1"}},{"base_weights":[-5.763809E-4,-3.5985038E-1,4.9084937E-3,4.757047E-1,-9.1478723E-1,5.2733477E-3,-4.5187777E-4,-3.7260228E-3,-7.2270766E-4],"categories":[],"categories_nodes":[],"categories_segments":[],"categories_sizes":[],"default_left":[0,0,0,0,0,0,0,0,0],"id":99,"left_children":[1,3,-1,5,7,-1,-1,-1,-1],"loss_changes":[5.1067324E0,3.5671868E0,0E0,2.1117876E0,6.901126E-1,0E0,0E0,0E0,0E0],"parents":[2147483647,0,0,1,1,3,3,4,4],"right_children":[2,4,-1,6,8,-1,-1,-1,-1],"split_conditions":[9.047619E-1,-1.6442661E12,4.9084937E-3,6.666665E-1,1.1025944E2,5.2733477E-3,-4.5187777E-4,-3.7260228E-3,-7.2270766E-4],"split_indices":[5,9,0,5,3,0,0,0,0],"split_type":[0,0,0,0,0,0,0,0,0],"sum_hessian":[9.550265E0,7.6931896E0,1.8570759E0,3.070305E0,4.6228848E0,1.0839975E0,1.9863075E0,3.5332205E0,1.0896642E0],"tree_param":{"num_deleted":"0","num_feature":"12","num_nodes":"9","size_leaf_vector":"1"}},{"base_weights":[-5.792765E-4,8.971828E-1,-5.92228E-1,1.5835102E0,-1.2789746E-3,-3.450577E-2,-3.6352945E-3,7.0721004E-4,1.119543E-2,2.5162855E-3,-1.7463878E-3],"categories":[],"categories_nodes":[],"categories_segments":[],"categories_sizes":[],"default_left":[0,0,0,0,0,0,0,0,0,0,0],"id":100,"left_children":[1,3,5,7,-1,9,-1,-1,-1,-1,-1],"loss_changes":[5.07205E0,3.3449404E0,1.6359696E0,6.12661E0,0E0,1.084089E0,0E0,0E0,0E0,0E0,0E0],"parents":[2147483647,0,0,1,1,2,2,3,3,5,5],"right_children":[2,4,6,8,-1,10,-1,-1,-1,-1,-1],"split_conditions":[3.1015131E0,2.2734447E4,7E0,8.7878793E-1,-1.2789746E-3,4.7379303E0,-3.6352945E-3,7.0721004E-4,1.119543E-2,2.5162855E-3,-1.7463878E-3],"split_indices":[4,1,6,5,0,4,0,0,0,0,0],"split_type":[0,0,0,0,0,0,0,0,0,0,0],"sum_hessian":[9.548998E0,3.7932112E0,5.7557864E0,2.4724774E0,1.3207337E0,2.748218E0,3.0075686E0,1.4076071E0,1.0648702E0,1.0525275E0,1.6956905E0],"tree_param":{"num_deleted":"0","num_feature":"12","num_nodes":"11","size_leaf_vector":"1"}},{"base_weights":[-5.835704E-4,8.928512E-1,-5.912251E-1,7.694401E-3,2.864852E-1,-3.439756E-2,-3.634076E-3,-3.887454E-3,8.356636E-3,2.5059478E-3,-1.7434614E-3],"categories":[],"categories_nodes":[],"categories_segments":[],"categories_sizes":[],"default_left":[0,0,0,0,0,0,0,0,0,0,0],"id":101,"left_children":[1,3,5,-1,7,9,-1,-1,-1,-1,-1],"loss_changes":[5.037195E0,3.3155828E0,1.6327555E0,0E0,8.795232E0,1.0778561E0,0E0,0E0,0E0,0E0,0E0],"parents":[2147483647,0,0,1,1,2,2,4,4,5,5],"right_children":[2,4,6,-1,8,10,-1,-1,-1,-1,-1],"split_conditions":[3.1015131E0,2E0,7E0,7.694401E-3,8.8888884E-1,1.577375E4,-3.634076E-3,-3.887454E-3,8.356636E-3,2.5059478E-3,-1.7434614E-3],"split_indices":[4,7,6,0,5,8,0,0,0,0,0],"split_type":[0,0,0,0,0,0,0,0,0,0,0],"sum_hessian":[9.54556E0,3.798997E0,5.7465625E0,1.126065E0,2.672932E0,2.7478974E0,2.998665E0,1.6179497E0,1.0549822E0,1.0540283E0,1.6938692E0],"tree_param":{"num_deleted":"0","num_feature":"12","num_nodes":"11","size_leaf_vector":"1"}},{"base_weights":[-5.89415E-4,8.883873E-1,-5.902233E-1,1.5677208E0,-1.2812614E-3,-3.428966E-2,-3.6328628E-3,7.0574885E-4,1.1017183E-2,2.5071348E-3,-1.7439942E-3],"categories":[],"categories_nodes":[],"categories_segments":[],"categories_sizes":[],"default_left":[0,0,0,0,0,0,0,0,0,0,0],"id":102,"left_children":[1,3,5,7,-1,9,-1,-1,-1,-1,-1],"loss_changes":[5.002059E0,3.300574E0,1.6295463E0,5.957158E0,0E0,1.078659E0,0E0,0E0,0E0,0E0,0E0],"parents":[2147483647,0,0,1,1,2,2,3,3,5,5],"right_children":[2,4,6,8,-1,10,-1,-1,-1,-1,-1],"split_conditions":[3.1015131E0,2.2734447E4,7E0,8.7878793E-1,-1.2812614E-3,-1.6145792E12,-3.6328628E-3,7.0574885E-4,1.1017183E-2,2.5071348E-3,-1.7439942E-3],"split_indices":[4,1,6,5,0,9,0,0,0,0,0],"split_type":[0,0,0,0,0,0,0,0,0,0,0],"sum_hessian":[9.54279E0,3.8054307E0,5.73736E0,2.4838228E0,1.3216078E0,2.7475748E0,2.9897852E0,1.4079218E0,1.0759009E0,1.0540525E0,1.6935223E0],"tree_param":{"num_deleted":"0","num_feature":"12","num_nodes":"11","size_leaf_vector":"1"}},{"base_weights":[-5.935998E-4,8.841314E-1,-5.892221E-1,1.558189E0,-1.2782592E-3,-3.418214E-2,-3.6316542E-3,7.030935E-4,1.0917078E-2,2.496331E-3,-1.7407866E-3],"categories":[],"categories_nodes":[],"categories_segments":[],"categories_sizes":[],"default_left":[0,0,0,0,0,0,0,0,0,0,0],"id":103,"left_children":[1,3,5,7,-1,9,-1,-1,-1,-1,-1],"loss_changes":[4.9678164E0,3.2665443E0,1.6263429E0,5.865544E0,0E0,1.0720623E0,0E0,0E0,0E0,0E0,0E0],"parents":[2147483647,0,0,1,1,2,2,3,3,5,5],"right_children":[2,4,6,8,-1,10,-1,-1,-1,-1,-1],"split_conditions":[3.1015131E0,2.2734447E4,7E0,8.7878793E-1,-1.2782592E-3,4.7379303E0,-3.6316542E-3,7.030935E-4,1.0917078E-2,2.496331E-3,-1.7407866E-3],"split_indices":[4,1,6,5,0,4,0,0,0,0,0],"split_type":[0,0,0,0,0,0,0,0,0,0,0],"sum_hessian":[9.539277E0,3.8110933E0,5.7281833E0,2.4907496E0,1.3203436E0,2.7472558E0,2.9809277E0,1.4085758E0,1.082174E0,1.0555656E0,1.6916902E0],"tree_param":{"num_deleted":"0","num_feature":"12","num_nodes":"11","size_leaf_vector":"1"}},{"base_weights":[-5.977328E-4,-3.5674548E-1,4.796484E-3,4.7797343E-1,-9.1337514E-1,5.2557285E-3,-4.4176876E-4,-3.7256188E-3,-7.086464E-4],"categories":[],"categories_nodes":[],